{"learner":{"attributes":{"scikit_learn":"{\"_estimator_type\": \"classifier\"}"},"feature_names":["Age","Pclass","Fare","Sex"],"feature_types":["float","float","float","c"],"gradient_booster":{"model":{"gbtree_model_param":{"num_parallel_tree":"1","num_trees":"100"},"iteration_indptr":[0,1,2,3,4,5,6,7,8,9,10,11,12,13,14,15,16,17,18,19,20,21,22,23,24,25,26,27,28,29,30,31,32,33,34,35,36,37,38,39,40,41,42,43,44,45,46,47,48,49,50,51,52,53,54,55,56,57,58,59,60,61,62,63,64,65,66,67,68,69,70,71,72,73,74,75,76,77,78,79,80,81,82,83,84,85,86,87,88,89,90,91,92,93,94,95,96,97,98,99,100],"tree_info":[0,0,0,0,0,0,0,0,0,0,0,0,0,0,0,0,0,0,0,0,0,0,0,0,0,0,0,0,0,0,0,0,0,0,0,0,0,0,0,0,0,0,0,0,0,0,0,0,0,0,0,0,0,0,0,0,0,0,0,0,0,0,0,0,0,0,0,0,0,0,0,0,0,0,0,0,0,0,0,0,0,0,0,0,0,0,0,0,0,0,0,0,0,0,0,0,0,0,0,0],"trees":[{"base_weights":[-1.0380217E-2,-8.109186E-1,1.503354E0,1.078981E0,-9.136741E-1,7.193011E-1,4.4297266E-1,5.3788036E-1,2.6477832E-1,-1.9970998E-1,-1.0926614E0,8.385159E-1,-3.512095E-1,4.2805085E-1,-2.1136038E-1,2.3538302E-1,-4.575639E-1,-1.1224167E0,-2.2792573E-1,1.3050402E0,4.7962812E-1,-1.8721482E-1,5.127603E-1,-6.92544E-1,-1.1946494E-1,-2.3517983E-1,-1.1459006E0,2.1478392E-1,-3.0053875E-1,8.24357E-1,5.2286714E-1,4.1307497E-1,2.3945194E-1,-4.2862583E-2,2.8590629E-1,-6.6846326E-2,-3.1013566E-1,1.5319595E-1,-1.776819E-1,1.4567166E-2,-1.2326073E-1,-2.9427093E-1,-3.8283756E-1,3.978944E-1,-3.94258E-2,-8.291771E-2,1.7249183E-1],"categories":[0],"categories_nodes":[0],"categories_segments":[0],"categories_sizes":[1],"default_left":[1,0,0,0,0,0,0,0,0,0,0,1,0,0,0,0,1,0,0,0,0,0,0,0,0,0,0,0,0,0,0,0,0,0,0,0,0,0,0,0,0,0,0,0,0,0,0],"id":0,"left_children":[1,3,5,7,9,-1,11,-1,13,15,17,19,-1,-1,-1,21,23,25,27,29,31,-1,33,35,37,39,41,-1,-1,43,-1,-1,45,-1,-1,-1,-1,-1,-1,-1,-1,-1,-1,-1,-1,-1,-1],"loss_changes":[2.0547055E2,2.2521774E1,5.4561142E1,3.1160722E0,1.3291771E1,0E0,1.8893246E1,0E0,5.577565E0,2.6224093E0,1.9133987E0,3.2451477E0,0E0,0E0,0E0,2.4657254E0,1.0623722E0,1.4233322E0,3.6822348E0,5.5672264E-1,2.8272362E0,0E0,2.2588377E0,1.099262E0,2.4232135E0,1.8710893E-1,4.433899E-1,0E0,0E0,3.2507539E0,0E0,0E0,2.3684607E0,0E0,0E0,0E0,0E0,0E0,0E0,0E0,0E0,0E0,0E0,0E0,0E0,0E0,0E0],"parents":[2147483647,0,0,1,1,2,2,3,3,4,4,6,6,8,8,9,9,10,10,11,11,15,15,16,16,17,17,18,18,19,19,20,20,22,22,23,23,24,24,25,25,26,26,29,29,32,32],"right_children":[2,4,6,8,10,-1,12,-1,14,16,18,20,-1,-1,-1,22,24,26,28,30,32,-1,34,36,38,40,42,-1,-1,44,-1,-1,46,-1,-1,-1,-1,-1,-1,-1,-1,-1,-1,-1,-1,-1,-1],"split_conditions":[NaN,7E0,3E0,3E0,2E0,7.193011E-1,2.345E1,5.3788036E-1,2.1E1,3.9E1,4.71E1,8E0,-3.512095E-1,4.2805085E-1,-2.1136038E-1,2.45E1,4.8E1,1.3E1,5.7E1,1.55E1,7.7375E0,-1.8721482E-1,5.25542E1,3.1E1,5.3E1,2.97E1,3.25E1,2.1478392E-1,-3.0053875E-1,7.8875E0,5.2286714E-1,4.1307497E-1,2.4E1,-4.2862583E-2,2.8590629E-1,-6.6846326E-2,-3.1013566E-1,1.5319595E-1,-1.776819E-1,1.4567166E-2,-1.2326073E-1,-2.9427093E-1,-3.8283756E-1,3.978944E-1,-3.94258E-2,-8.291771E-2,1.7249183E-1],"split_indices":[3,0,1,1,1,0,2,0,2,0,2,0,0,0,0,0,0,0,2,2,2,0,2,2,0,2,0,0,0,2,0,0,0,0,0,0,0,0,0,0,0,0,0,0,0,0,0],"split_type":[1,0,0,0,0,0,0,0,0,0,0,0,0,0,0,0,0,0,0,0,0,0,0,0,0,0,0,0,0,0,0,0,0,0,0,0,0,0,0,0,0,0,0,0,0,0,0],"sum_hessian":[1.6755179E2,1.09897026E2,5.765476E1,5.177162E0,1.04719864E2,3.0592321E1,2.7062437E1,2.11793E0,3.059232E0,2.1414625E1,8.3305244E1,2.2120602E1,4.9418364E0,1.1766278E0,1.8826044E0,8.001068E0,1.3413556E1,8.024601E1,3.059232E0,8.47172E0,1.3648882E1,1.6472788E0,6.35379E0,7.295092E0,6.118464E0,2.3532555E0,7.789275E1,1.4119532E0,1.6472788E0,5.4124875E0,3.059232E0,1.8826044E0,1.1766277E1,2.8239064E0,3.5298831E0,3.7652087E0,3.5298831E0,2.588581E0,3.5298831E0,1.1766278E0,1.1766278E0,3.8122738E1,3.9770016E1,3.2945576E0,2.11793E0,4.706511E0,7.0597663E0],"tree_param":{"num_deleted":"0","num_feature":"4","num_nodes":"47","size_leaf_vector":"1"}},{"base_weights":[-1.6931437E-2,-6.3400936E-1,1.0322227E0,8.5208225E-1,-7.2336155E-1,4.779416E-1,3.3646443E-1,4.064849E-1,2.3353735E-1,-1.63102E-1,-8.756914E-1,6.224644E-1,-2.9415402E-1,3.4459496E-1,-1.7806827E-1,-2.917343E-1,-5.100502E-2,-7.029098E-1,-1.0358522E0,7.0498717E-1,-1.4891665E-1,3.7992257E-1,-2.7841175E-1,-8.034362E-1,4.420509E-1,-3.1575188E-1,-6.902785E-2,5.125464E-1,1.0475684E0,2.4010888E-1,-1.832467E-1,-2.2668406E-1,-8.666233E-3,-2.8027683E-2,-2.5911018E-1,1.6415974E-2,1.8462847E-1,2.7885157E-1,-2.7822534E-2,1.2254683E-1,4.5696762E-1],"categories":[0],"categories_nodes":[0],"categories_segments":[0],"categories_sizes":[1],"default_left":[1,0,0,0,0,0,0,0,0,0,0,1,0,0,0,0,0,0,1,0,0,1,0,0,0,0,0,0,0,0,0,0,0,0,0,0,0,0,0,0,0],"id":1,"left_children":[1,3,5,7,9,-1,11,-1,13,15,17,19,-1,-1,-1,-1,21,23,25,27,-1,29,31,33,35,-1,-1,37,39,-1,-1,-1,-1,-1,-1,-1,-1,-1,-1,-1,-1],"loss_changes":[1.053229E2,1.4215961E1,2.2979149E1,1.6331525E0,8.148361E0,0E0,1.1217891E1,0E0,3.723645E0,1.9460435E0,1.3792686E0,2.542756E0,0E0,0E0,0E0,0E0,2.1025336E0,4.9297028E0,2.5981522E-1,9.484854E-1,0E0,3.5968847E0,1.6350365E0,1.4978371E0,2.2506672E-1,0E0,0E0,4.2214684E0,1.5501075E0,0E0,0E0,0E0,0E0,0E0,0E0,0E0,0E0,0E0,0E0,0E0,0E0],"parents":[2147483647,0,0,1,1,2,2,3,3,4,4,6,6,8,8,9,9,10,10,11,11,16,16,17,17,18,18,19,19,21,21,22,22,23,23,24,24,27,27,28,28],"right_children":[2,4,6,8,10,-1,12,-1,14,16,18,20,-1,-1,-1,-1,22,24,26,28,-1,30,32,34,36,-1,-1,38,40,-1,-1,-1,-1,-1,-1,-1,-1,-1,-1,-1,-1],"split_conditions":[NaN,7E0,3E0,3E0,2E0,4.779416E-1,2.345E1,4.064849E-1,2.1E1,2.625E1,3.25E1,3.7E1,-2.9415402E-1,3.4459496E-1,-1.7806827E-1,-2.917343E-1,3.1E1,3.2E1,6.1E1,1.55E1,-1.4891665E-1,5.5E1,5.25542E1,7.2292E0,8.0292E0,-3.1575188E-1,-6.902785E-2,8.05E0,3.2E1,2.4010888E-1,-1.832467E-1,-2.2668406E-1,-8.666233E-3,-2.8027683E-2,-2.5911018E-1,1.6415974E-2,1.8462847E-1,2.7885157E-1,-2.7822534E-2,1.2254683E-1,4.5696762E-1],"split_indices":[3,0,1,1,1,0,2,0,2,2,0,0,0,0,0,0,2,0,0,2,0,0,2,2,2,0,0,2,0,0,0,0,0,0,0,0,0,0,0,0,0],"split_type":[1,0,0,0,0,0,0,0,0,0,0,0,0,0,0,0,0,0,0,0,0,0,0,0,0,0,0,0,0,0,0,0,0,0,0,0,0,0,0,0,0],"sum_hessian":[1.6067264E2,1.0141775E2,5.9254883E1,5.2678294E0,9.614992E1,3.2092407E1,2.7162476E1,2.248936E0,3.0188932E0,2.099657E1,7.515335E1,2.2749468E1,4.413008E0,1.2486261E0,1.7702671E0,1.6206126E0,1.9375957E1,3.874451E1,3.6408836E1,2.1531296E1,1.218172E0,6.461318E0,1.291464E1,3.5891556E1,2.8529556E0,3.5371525E1,1.0373135E0,1.538506E1,6.1462345E0,4.67118E0,1.7901382E0,3.7378972E0,9.1767435E0,3.0075917E0,3.2883965E1,1.2889678E0,1.5639877E0,8.79257E0,6.59249E0,3.4157372E0,2.7304976E0],"tree_param":{"num_deleted":"0","num_feature":"4","num_nodes":"41","size_leaf_vector":"1"}},{"base_weights":[-1.427257E-2,-5.0343883E-1,7.9782075E-1,7.174018E-1,-5.807766E-1,1.2771709E0,2.5102398E-1,3.348213E-1,2.1005568E-1,-1.4233606E-1,-7.118027E-1,9.336552E-2,3.9108407E-1,4.6422452E-1,-8.4217435E-1,2.9033548E-1,-1.5130158E-1,-2.5480103E-1,-4.8667487E-2,-5.5122054E-1,-8.6988235E-1,5.295056E-1,-1.2671141E-1,-6.4832E-2,-2.9050127E-1,2.3555015E-1,-2.5318637E-1,-6.409713E-1,3.519126E-1,-2.655183E-1,-5.9515595E-2,3.02062E-1,7.779283E-1,-4.2642336E-2,2.049279E-1,-2.835408E-1,-6.3344482E-3,-3.5782404E-2,-2.1193336E-1,1.35874385E-2,1.455981E-1,2.0066623E-1,-1.7213352E-1,4.547194E-1,1.4512056E-1],"categories":[0],"categories_nodes":[0],"categories_segments":[0],"categories_sizes":[1],"default_left":[1,0,0,0,0,0,0,0,0,0,0,0,0,1,0,0,0,0,0,0,1,0,0,0,0,0,0,0,0,0,0,0,0,0,0,0,0,0,0,0,0,0,0,0,0],"id":2,"left_children":[1,3,5,7,9,11,13,-1,15,17,19,-1,-1,21,23,-1,-1,-1,25,27,29,31,-1,-1,-1,33,35,37,39,-1,-1,41,43,-1,-1,-1,-1,-1,-1,-1,-1,-1,-1,-1,-1],"loss_changes":[5.956542E1,9.250319E0,1.4455353E1,9.834163E-1,4.9849987E0,3.5531998E-1,6.8187666E0,0E0,2.589102E0,1.3905215E0,1.2445679E0,0E0,0E0,1.5966692E0,1.7430544E-1,0E0,0E0,0E0,1.2310792E0,3.1778097E0,1.556282E-1,1.0385461E0,0E0,0E0,0E0,1.6101584E0,1.9393897E0,1.059454E0,1.3910845E-1,0E0,0E0,4.6893816E0,1.4673371E0,0E0,0E0,0E0,0E0,0E0,0E0,0E0,0E0,0E0,0E0,0E0,0E0],"parents":[2147483647,0,0,1,1,2,2,3,3,4,4,5,5,6,6,8,8,9,9,10,10,13,13,14,14,18,18,19,19,20,20,21,21,25,25,26,26,27,27,28,28,31,31,32,32],"right_children":[2,4,6,8,10,12,14,-1,16,18,20,-1,-1,22,24,-1,-1,-1,26,28,30,32,-1,-1,-1,34,36,38,40,-1,-1,42,44,-1,-1,-1,-1,-1,-1,-1,-1,-1,-1,-1,-1],"split_conditions":[NaN,7E0,3E0,3E0,2E0,5E0,2.345E1,3.348213E-1,2.1E1,2.625E1,3.25E1,9.336552E-2,3.9108407E-1,3.7E1,1E1,2.9033548E-1,-1.5130158E-1,-2.5480103E-1,3.675E1,3.2E1,6.1E1,1.11333E1,-1.2671141E-1,-6.4832E-2,-2.9050127E-1,3E1,5.25542E1,7.25E0,8.0292E0,-2.655183E-1,-5.9515595E-2,8.05E0,1.35E1,-4.2642336E-2,2.049279E-1,-2.835408E-1,-6.3344482E-3,-3.5782404E-2,-2.1193336E-1,1.35874385E-2,1.455981E-1,2.0066623E-1,-1.7213352E-1,4.547194E-1,1.4512056E-1],"split_indices":[3,0,1,1,1,0,2,0,2,2,0,0,0,0,0,0,0,0,2,0,0,2,0,0,0,2,2,2,2,0,0,2,2,0,0,0,0,0,0,0,0,0,0,0,0],"split_type":[1,0,0,0,0,0,0,0,0,0,0,0,0,0,0,0,0,0,0,0,0,0,0,0,0,0,0,0,0,0,0,0,0,0,0,0,0,0,0,0,0,0,0,0,0],"sum_hessian":[1.4793382E2,9.256011E1,5.5373722E1,5.0211306E0,8.753898E1,2.87949E1,2.6578821E1,2.1398385E0,2.8812923E0,2.06215E1,6.691748E1,1.1074961E0,2.7687405E1,2.272269E1,3.8561308E0,1.2261118E0,1.6551805E0,1.4686692E0,1.915283E1,3.5421852E1,3.1495626E1,2.1539478E1,1.1832124E0,1.1017517E0,2.7543793E0,7.9512863E0,1.1201544E1,3.2483967E1,2.9378831E0,3.0488419E1,1.0072076E0,1.2401339E1,9.13814E0,4.6822386E0,3.2690475E0,2.0416148E0,9.159929E0,3.93681E0,2.854716E1,1.2968538E0,1.6410294E0,8.907098E0,3.4942405E0,1.4213613E0,7.7167783E0],"tree_param":{"num_deleted":"0","num_feature":"4","num_nodes":"45","size_leaf_vector":"1"}},{"base_weights":[-1.0346094E-2,-3.9976597E-1,6.3837415E-1,5.1124126E-1,-4.8215E-1,1.0919462E0,1.8262206E-1,3.866286E-1,8.737565E-3,-6.283586E-1,-1.324772E-1,8.027214E-2,3.3512175E-1,3.4904936E-1,-7.451616E-1,3.1798014E-1,-6.2367207E-1,-4.7741294E-1,-7.6308674E-1,-2.1365143E-1,-3.717566E-2,6.384833E-1,1.4115213E-1,-5.5789728E-2,-2.60359E-1,-2.6472243E-2,-2.5890532E-1,-6.3920426E-1,-1.01720534E-1,-2.798329E-1,-5.601122E-1,2.8804877E-1,-1.766883E-1,2.624238E-1,2.677115E-1,2.2724436E-1,-8.243872E-3,-4.505304E-2,-2.1802603E-1,9.193425E-2,-2.284893E-1,-6.534531E-2,-2.761607E-1,-2.2320823E-1,-2.2353243E-2,1.4371535E-1,-6.1900385E-2,-1.2991336E-1,5.8645304E-2],"categories":[0],"categories_nodes":[0],"categories_segments":[0],"categories_sizes":[1],"default_left":[1,0,0,0,0,0,0,0,0,0,0,0,0,1,0,0,0,0,0,0,0,0,0,0,0,0,0,0,0,0,0,0,0,0,0,0,0,0,0,0,0,0,0,0,0,0,0,0,0],"id":3,"left_children":[1,3,5,7,9,11,13,-1,15,17,19,-1,-1,21,23,-1,25,27,29,-1,31,33,35,-1,-1,-1,-1,37,39,-1,41,-1,43,45,-1,-1,47,-1,-1,-1,-1,-1,-1,-1,-1,-1,-1,-1,-1],"loss_changes":[3.4615147E1,6.671508E0,1.0426828E1,2.9522223E0,3.9567757E0,2.3060226E-1,4.4046817E0,0E0,4.393235E0,7.634697E-1,1.3307188E0,0E0,0E0,1.3203268E0,1.4061737E-1,0E0,4.5374143E-1,1.6870651E0,4.2921448E-1,0E0,3.2520556E0,6.7426133E-1,1.3805286E0,0E0,0E0,0E0,0E0,7.453766E-1,2.8908527E0,0E0,1.6604681E0,0E0,1.1201243E0,6.3209456E-1,0E0,0E0,1.2099485E0,0E0,0E0,0E0,0E0,0E0,0E0,0E0,0E0,0E0,0E0,0E0,0E0],"parents":[2147483647,0,0,1,1,2,2,3,3,4,4,5,5,6,6,8,8,9,9,10,10,13,13,14,14,16,16,17,17,18,18,20,20,21,21,22,22,27,27,28,28,30,30,32,32,33,33,36,36],"right_children":[2,4,6,8,10,12,14,-1,16,18,20,-1,-1,22,24,-1,26,28,30,-1,32,34,36,-1,-1,-1,-1,38,40,-1,42,-1,44,46,-1,-1,48,-1,-1,-1,-1,-1,-1,-1,-1,-1,-1,-1,-1],"split_conditions":[NaN,1.3E1,3E0,1.87875E1,2.62875E1,5E0,2.345E1,3.866286E-1,3E0,3.25E1,2.45E1,8.027214E-2,3.3512175E-1,8E0,1E1,3.1798014E-1,4E0,2.7E1,7.925E0,-2.1365143E-1,2.8E1,1.05E1,7.7375E0,-5.5789728E-2,-2.60359E-1,-2.6472243E-2,-2.5890532E-1,7.25E0,9.5875E0,-2.798329E-1,1.4E1,2.8804877E-1,3.1E1,7.775E0,2.677115E-1,2.2724436E-1,2.2E1,-4.505304E-2,-2.1802603E-1,9.193425E-2,-2.284893E-1,-6.534531E-2,-2.761607E-1,-2.2320823E-1,-2.2353243E-2,1.4371535E-1,-6.1900385E-2,-1.2991336E-1,5.8645304E-2],"split_indices":[3,0,1,2,2,0,2,0,1,0,0,0,0,0,0,0,0,0,2,0,0,2,2,0,0,0,0,2,2,0,2,0,0,2,0,0,0,0,0,0,0,0,0,0,0,0,0,0,0],"split_type":[1,0,0,0,0,0,0,0,0,0,0,0,0,0,0,0,0,0,0,0,0,0,0,0,0,0,0,0,0,0,0,0,0,0,0,0,0,0,0,0,0,0,0,0,0,0,0,0,0],"sum_hessian":[1.3501192E2,8.4606995E1,5.040492E1,6.584923E0,7.802207E1,2.4563244E1,2.5841673E1,1.970814E0,4.614109E0,5.4455578E1,2.3566492E1,1.0710799E0,2.3492165E1,2.2440111E1,3.4015615E0,1.4792552E0,3.1348536E0,2.7824886E1,2.6630693E1,2.4134269E0,2.1153065E1,8.514751E0,1.3925361E1,1.064742E0,2.3368196E0,1.3912394E0,1.7436143E0,1.8958874E1,8.866011E0,1.254629E1,1.4084403E1,1.87401E0,1.9279055E1,4.2513175E0,4.263434E0,1.9227633E0,1.2002598E1,3.2910793E0,1.5667795E1,5.808783E0,3.0572276E0,8.0467415E0,6.037661E0,1.9835736E0,1.729548E1,2.8926017E0,1.3587158E0,3.5256164E0,8.476981E0],"tree_param":{"num_deleted":"0","num_feature":"4","num_nodes":"49","size_leaf_vector":"1"}},{"base_weights":[-9.844709E-3,-3.215276E-1,5.215544E-1,4.478302E-1,-3.9126235E-1,9.5817995E-1,1.3911667E-1,3.3092698E-1,1.1449644E-2,-5.225633E-1,-1.0341228E-1,3.0662915E-1,3.7434748E-1,3.074323E-1,-5.3128946E-1,2.794865E-1,-5.4308766E-1,-4.2988363E-1,-7.434464E-1,-1.8237434E-1,-2.5459897E-2,-7.652572E-2,2.2654578E-1,1.2714538E-1,8.4503996E-1,-1.0023032E-3,-2.782819E-1,-2.1993037E-2,-2.3118208E-1,-4.8350295E-1,1.4630908E-1,-2.8802192E-1,-5.4728335E-1,2.2603855E-1,-1.3819665E-1,2.9323083E-1,-2.3576021E-1,2.9432812E-1,9.015642E-2,8.563558E-2,-7.768691E-2,-7.270605E-2,-1.7989668E-1,-7.258431E-2,1.0972685E-1,-6.811606E-2,-2.6925665E-1,-6.490551E-2,1.3627103E-1,3.742798E-2,3.321688E-1],"categories":[0],"categories_nodes":[0],"categories_segments":[0],"categories_sizes":[1],"default_left":[1,0,0,0,0,0,0,0,0,1,0,0,0,0,1,0,0,1,0,0,0,0,0,0,1,0,0,0,0,0,0,0,0,0,0,0,0,0,0,0,0,0,0,0,0,0,0,0,0,0,0],"id":4,"left_children":[1,3,5,7,9,11,13,-1,15,17,19,-1,21,23,25,-1,27,29,31,-1,33,-1,-1,35,37,39,-1,-1,-1,41,43,-1,45,-1,47,49,-1,-1,-1,-1,-1,-1,-1,-1,-1,-1,-1,-1,-1,-1,-1],"loss_changes":[2.081338E1,4.423668E0,7.6253834E0,2.002492E0,2.7102652E0,4.2063713E-1,3.0902781E0,0E0,3.180094E0,7.0359325E-1,9.3458724E-1,0E0,1.0799513E0,1.9635167E0,1.1700912E0,0E0,3.6053705E-1,1.2317605E0,4.407692E-2,0E0,2.0332508E0,0E0,0E0,2.835294E0,8.956814E-2,3.239906E-1,0E0,0E0,0E0,8.241701E-1,4.2649257E-1,0E0,8.458946E-1,0E0,1.0259726E0,1.954879E0,0E0,0E0,0E0,0E0,0E0,0E0,0E0,0E0,0E0,0E0,0E0,0E0,0E0,0E0,0E0],"parents":[2147483647,0,0,1,1,2,2,3,3,4,4,5,5,6,6,8,8,9,9,10,10,12,12,13,13,14,14,16,16,17,17,18,18,20,20,23,23,24,24,25,25,29,29,30,30,32,32,34,34,35,35],"right_children":[2,4,6,8,10,12,14,-1,16,18,20,-1,22,24,26,-1,28,30,32,-1,34,-1,-1,36,38,40,-1,-1,-1,42,44,-1,46,-1,48,50,-1,-1,-1,-1,-1,-1,-1,-1,-1,-1,-1,-1,-1,-1,-1],"split_conditions":[NaN,1.3E1,3E0,1.87875E1,2.62875E1,1.5155E2,2.0575E1,3.3092698E-1,3E0,3.3E1,2.45E1,3.0662915E-1,2.113375E2,1.55E1,6E0,2.794865E-1,4E0,3.1E1,7.925E0,-1.8237434E-1,2.8E1,-7.652572E-2,2.2654578E-1,1.35E1,2.6E1,2.345E1,-2.782819E-1,-2.1993037E-2,-2.3118208E-1,7.8E0,7.925E0,-2.8802192E-1,1.34167E1,2.2603855E-1,1.13275E2,1.11333E1,-2.3576021E-1,2.9432812E-1,9.015642E-2,8.563558E-2,-7.768691E-2,-7.270605E-2,-1.7989668E-1,-7.258431E-2,1.0972685E-1,-6.811606E-2,-2.6925665E-1,-6.490551E-2,1.3627103E-1,3.742798E-2,3.321688E-1],"split_indices":[3,0,1,2,2,2,2,0,1,0,0,0,2,2,0,0,0,0,2,0,0,0,0,2,0,2,0,0,0,2,2,0,2,0,2,2,0,0,0,0,0,0,0,0,0,0,0,0,0,0,0],"split_type":[1,0,0,0,0,0,0,0,0,0,0,0,0,0,0,0,0,0,0,0,0,0,0,0,0,0,0,0,0,0,0,0,0,0,0,0,0,0,0,0,0,0,0,0,0,0,0,0,0,0,0],"sum_hessian":[1.2365093E2,7.818678E1,4.5464153E1,6.047296E0,7.213948E1,2.0525234E1,2.4938917E1,1.806651E0,4.240645E0,4.89815E1,2.3157986E1,1.7823296E1,2.7019386E0,2.0366919E1,4.5719995E0,1.3389157E0,2.901729E0,3.657945E1,1.2402048E1,2.1894553E0,2.096853E1,1.1429298E0,1.559009E0,1.6178091E1,4.1888266E0,2.3842757E0,2.1877236E0,1.3782206E0,1.5235085E0,3.3612415E1,2.9670365E0,4.043014E0,8.359034E0,1.9325777E0,1.9035954E1,1.4262452E1,1.91564E0,2.7099526E0,1.4788738E0,1.079219E0,1.3050568E0,1.1930176E1,2.1682238E1,1.0343966E0,1.9326398E0,5.2276125E0,3.131421E0,1.7378195E1,1.657759E0,1.2772279E1,1.4901733E0],"tree_param":{"num_deleted":"0","num_feature":"4","num_nodes":"51","size_leaf_vector":"1"}},{"base_weights":[-3.9633927E-3,-2.5280058E-1,4.3007386E-1,3.9840728E-1,-3.112429E-1,8.4978485E-1,1.09786145E-1,6.665325E-1,-1.1286859E-1,-4.291962E-1,-7.054891E-2,5.2390313E-1,2.9776677E-1,2.4546094E-1,-4.631927E-1,2.89668E-1,2.613089E-1,-3.39159E-1,-6.5601313E-1,2.0834397E-1,-2.00617E-1,7.989796E-1,-7.086395E-2,8.9221366E-2,2.0217407E-1,1.3783404E-3,-2.501208E-1,-5.7139583E-2,2.0935173E-1,-4.3891746E-1,-1.9112129E-2,-2.0811497E-1,-3.8507726E-2,4.6180537E-1,-1.460559E-1,-6.986872E-1,3.3099692E-2,2.7673075E-1,4.5042224E-2,-9.1015905E-2,5.6833938E-2,2.3142722E-1,-2.6225972E-1,7.372453E-2,-6.667007E-2,-1.4510308E-1,-7.457909E-3,8.667721E-2,-1.8410338E-1,2.9027227E-1,8.739605E-3,-2.7934068E-1,-4.811482E-2,2.5028113E-1,-8.567063E-2,1.5550673E-1,-3.150899E-2],"categories":[0],"categories_nodes":[0],"categories_segments":[0],"categories_sizes":[1],"default_left":[1,0,0,0,0,0,0,0,0,1,0,0,0,0,1,0,0,1,0,1,0,0,0,0,0,0,0,0,0,0,0,0,0,0,0,0,0,0,0,0,0,1,0,0,0,0,0,0,0,0,0,0,0,0,0,0,0],"id":5,"left_children":[1,3,5,7,9,11,13,15,-1,17,19,21,-1,23,25,-1,27,29,31,33,35,37,39,41,-1,43,-1,-1,-1,45,47,-1,-1,49,-1,51,53,-1,-1,-1,-1,55,-1,-1,-1,-1,-1,-1,-1,-1,-1,-1,-1,-1,-1,-1,-1],"loss_changes":[1.2525892E1,2.9290504E0,5.5882483E0,1.6025631E0,1.905849E0,3.2420063E-1,2.0664818E0,3.7726998E-1,0E0,7.0815086E-1,8.988055E-1,1.3074715E0,0E0,1.3432401E0,8.886666E-1,0E0,8.383769E-1,1.0992279E0,1.4727926E-1,1.6352613E0,1.9579105E0,2.8678703E-1,2.5941622E-1,2.464905E0,0E0,2.3417081E-1,0E0,0E0,0E0,4.7729158E-1,1.8786271E0,0E0,0E0,1.3677549E0,0E0,5.2054167E-1,3.3701684E0,0E0,0E0,0E0,0E0,1.5200356E0,0E0,0E0,0E0,0E0,0E0,0E0,0E0,0E0,0E0,0E0,0E0,0E0,0E0,0E0,0E0],"parents":[2147483647,0,0,1,1,2,2,3,3,4,4,5,5,6,6,7,7,9,9,10,10,11,11,13,13,14,14,16,16,17,17,18,18,19,19,20,20,21,21,22,22,23,23,25,25,29,29,30,30,33,33,35,35,36,36,41,41],"right_children":[2,4,6,8,10,12,14,16,-1,18,20,22,-1,24,26,-1,28,30,32,34,36,38,40,42,-1,44,-1,-1,-1,46,48,-1,-1,50,-1,52,54,-1,-1,-1,-1,56,-1,-1,-1,-1,-1,-1,-1,-1,-1,-1,-1,-1,-1,-1,-1],"split_conditions":[NaN,1.3E1,3E0,3.96E1,2.62875E1,2.8E1,2.0575E1,1.87875E1,-1.1286859E-1,3.3E1,3.1E1,2.4E1,2.9776677E-1,1.5E1,6E0,2.89668E-1,2.97E1,2.7E1,5.8E1,5.5E1,5.25542E1,1.2E2,2.625E1,1.35E1,2.0217407E-1,2.345E1,-2.501208E-1,-5.7139583E-2,2.0935173E-1,1.57417E1,9.5875E0,-2.0811497E-1,-3.8507726E-2,2.7E1,-1.460559E-1,5.5E1,5.79792E1,2.7673075E-1,4.5042224E-2,-9.1015905E-2,5.6833938E-2,2E1,-2.6225972E-1,7.372453E-2,-6.667007E-2,-1.4510308E-1,-7.457909E-3,8.667721E-2,-1.8410338E-1,2.9027227E-1,8.739605E-3,-2.7934068E-1,-4.811482E-2,2.5028113E-1,-8.567063E-2,1.5550673E-1,-3.150899E-2],"split_indices":[3,0,1,2,2,0,2,2,0,0,2,0,0,2,0,0,2,0,0,0,2,2,2,2,0,2,0,0,0,2,2,0,0,2,0,0,2,0,0,0,0,0,0,0,0,0,0,0,0,0,0,0,0,0,0,0,0],"split_type":[1,0,0,0,0,0,0,0,0,0,0,0,0,0,0,0,0,0,0,0,0,0,0,0,0,0,0,0,0,0,0,0,0,0,0,0,0,0,0,0,0,0,0,0,0,0,0,0,0,0,0,0,0,0,0,0,0],"sum_hessian":[1.1396888E2,7.27044E1,4.126448E1,5.508416E0,6.7195984E1,1.7144636E1,2.4119844E1,4.1957073E0,1.3127091E0,4.4570717E1,2.2625269E1,6.645499E0,1.0499138E1,1.9964165E1,4.155679E0,1.6185472E0,2.5771601E0,3.3691746E1,1.0878971E1,7.004457E0,1.5620812E1,4.3091793E0,2.33632E0,1.5514783E1,4.449382E0,2.2859433E0,1.869736E0,1.5434722E0,1.0336878E0,2.540241E1,8.289334E0,9.85973E0,1.019242E0,5.379038E0,1.6254195E0,4.3535542E0,1.1267258E1,3.2660651E0,1.0431143E0,1.146621E0,1.1896989E0,1.4181331E1,1.3334521E0,1.044971E0,1.2409724E0,2.2772568E1,2.6298425E0,5.7990084E0,2.4903257E0,1.9100435E0,3.4689941E0,2.530911E0,1.8226433E0,2.7458565E0,8.521401E0,7.362235E0,6.8190956E0],"tree_param":{"num_deleted":"0","num_feature":"4","num_nodes":"57","size_leaf_vector":"1"}},{"base_weights":[-1.1896683E-3,-1.9681142E-1,3.4833342E-1,3.4391287E-1,-2.4692053E-1,7.585299E-1,7.1433105E-2,5.751695E-1,-9.5667094E-2,-2.1229625E-2,-3.4061098E-1,8.3287364E-1,2.239047E-1,1.8000811E-1,-4.0638593E-1,2.4343981E-1,1.8723814E-1,2.4705397E-1,-2.2144875E-1,-2.6011142E-1,-5.757756E-1,4.1807812E-1,9.287434E-1,-9.5877014E-2,1.9011164E-1,5.8553357E-2,5.70652E-1,2.9851724E-3,-2.2632678E-1,-8.42025E-2,1.7452148E-1,-9.34234E-2,3.8177E-1,-4.6568045E-1,4.6323452E-2,-3.096085E-1,2.0192878E-1,-3.780496E-1,-2.508597E-1,-6.811623E-2,2.2791319E-1,3.0447194E-1,5.2351326E-2,1.7281519E-1,-1.7911197E-1,6.1489336E-2,2.4656956E-1,6.355579E-2,-5.721672E-2,9.773472E-3,1.8075144E-1,-5.0147343E-2,-2.4664904E-1,1.12827055E-1,-8.104902E-2,-2.9288407E-2,-1.22712016E-1,-9.991814E-3,1.2685536E-1,-2.4133252E-1,-8.466178E-3,8.953993E-3,2.7493492E-1],"categories":[0],"categories_nodes":[0],"categories_segments":[0],"categories_sizes":[1],"default_left":[1,0,0,0,0,0,0,0,0,0,1,0,0,0,1,0,0,0,1,1,0,0,1,0,0,0,0,0,0,0,0,0,0,0,0,0,0,0,0,0,0,0,0,0,0,0,0,0,0,0,0,0,0,0,0,0,0,0,0,0,0,0,0],"id":6,"left_children":[1,3,5,7,9,11,13,15,-1,17,19,21,23,25,27,-1,29,31,33,35,37,39,41,-1,-1,43,45,47,-1,-1,-1,-1,49,51,53,55,57,59,-1,-1,-1,-1,-1,61,-1,-1,-1,-1,-1,-1,-1,-1,-1,-1,-1,-1,-1,-1,-1,-1,-1,-1,-1],"loss_changes":[7.388793E0,1.9621279E0,4.350501E0,1.148112E0,1.3458045E0,4.3053722E-1,1.3314914E0,3.0846083E-1,0E0,1.120285E0,7.049675E-1,1.3906193E-1,9.292497E-1,9.3718845E-1,6.858512E-1,0E0,7.541918E-1,7.922618E-1,7.989644E-1,8.7348986E-1,2.34339E-1,1.1220338E0,4.6971035E-1,0E0,0E0,1.3556362E0,2.6681066E-1,1.6990626E-1,0E0,0E0,0E0,0E0,5.708076E-1,5.337753E-1,7.8831524E-1,6.4348745E-1,2.2385325E-1,1.1559539E0,0E0,0E0,0E0,0E0,0E0,1.5688449E0,0E0,0E0,0E0,0E0,0E0,0E0,0E0,0E0,0E0,0E0,0E0,0E0,0E0,0E0,0E0,0E0,0E0,0E0,0E0],"parents":[2147483647,0,0,1,1,2,2,3,3,4,4,5,5,6,6,7,7,9,9,10,10,11,11,12,12,13,13,14,14,16,16,17,17,18,18,19,19,20,20,21,21,22,22,25,25,26,26,27,27,32,32,33,33,34,34,35,35,36,36,37,37,43,43],"right_children":[2,4,6,8,10,12,14,16,-1,18,20,22,24,26,28,-1,30,32,34,36,38,40,42,-1,-1,44,46,48,-1,-1,-1,-1,50,52,54,56,58,60,-1,-1,-1,-1,-1,62,-1,-1,-1,-1,-1,-1,-1,-1,-1,-1,-1,-1,-1,-1,-1,-1,-1,-1,-1],"split_conditions":[NaN,1.3E1,3E0,3.96E1,2E0,1.5155E2,2.0575E1,2.1E1,-9.5667094E-2,4.3E1,3.25E1,2.1075E1,2.113375E2,1.55E1,6E0,2.4343981E-1,2.97E1,2.45E1,4.8E1,3.2E1,1.34167E1,2.8E1,5E1,-9.5877014E-2,1.9011164E-1,1.35E1,3.2E1,2.345E1,-2.2632678E-1,-8.42025E-2,1.7452148E-1,-9.34234E-2,5.25542E1,3.675E1,5.3E1,7.8E0,8.4042E0,7.925E0,-2.508597E-1,-6.811623E-2,2.2791319E-1,3.0447194E-1,5.2351326E-2,1.11333E1,-1.7911197E-1,6.1489336E-2,2.4656956E-1,6.355579E-2,-5.721672E-2,9.773472E-3,1.8075144E-1,-5.0147343E-2,-2.4664904E-1,1.12827055E-1,-8.104902E-2,-2.9288407E-2,-1.22712016E-1,-9.991814E-3,1.2685536E-1,-2.4133252E-1,-8.466178E-3,8.953993E-3,2.7493492E-1],"split_indices":[3,0,1,2,1,2,2,2,0,0,0,2,2,2,0,0,2,0,0,0,2,0,0,0,0,2,0,2,0,0,0,0,2,2,0,2,2,2,0,0,0,0,0,2,0,0,0,0,0,0,0,0,0,0,0,0,0,0,0,0,0,0,0],"split_type":[1,0,0,0,0,0,0,0,0,0,0,0,0,0,0,0,0,0,0,0,0,0,0,0,0,0,0,0,0,0,0,0,0,0,0,0,0,0,0,0,0,0,0,0,0,0,0,0,0,0,0,0,0,0,0,0,0,0,0,0,0,0,0],"sum_hessian":[1.0606121E2,6.828195E1,3.777926E1,5.2937827E0,6.2988167E1,1.4524096E1,2.3255163E1,4.022516E0,1.2712667E0,1.8837385E1,4.415078E1,1.2261214E1,2.2628813E0,1.9457172E1,3.7979896E0,1.8213307E0,2.2011852E0,7.9503703E0,1.0887015E1,3.4460606E1,9.690177E0,3.3082874E0,8.952927E0,1.0673932E0,1.1954881E0,1.5719673E1,3.7375002E0,2.2007842E0,1.5972055E0,1.138889E0,1.0622962E0,1.2902068E0,6.660164E0,5.3072486E0,5.579767E0,3.1424137E1,3.036468E0,6.901726E0,2.788451E0,1.2614932E0,2.0467944E0,7.72485E0,1.2280766E0,1.4013662E1,1.7060102E0,2.2615783E0,1.475922E0,1.0138817E0,1.1869025E0,3.0239735E0,3.6361902E0,3.6878839E0,1.6193646E0,2.640325E0,2.939442E0,1.0666287E1,2.0757849E1,1.8818954E0,1.1545727E0,2.5248106E0,4.376915E0,1.2626309E1,1.3873533E0],"tree_param":{"num_deleted":"0","num_feature":"4","num_nodes":"63","size_leaf_vector":"1"}},{"base_weights":[3.1232215E-3,-1.5581834E-1,2.9390514E-1,-4.9268213E-1,-9.385859E-2,6.803663E-1,5.9883103E-2,-8.0365494E-2,-2.3456746E-1,3.7003818E-1,-1.2993926E-1,3.4937882E-1,8.540756E-1,1.7088728E-1,-3.7539285E-2,-4.1478065E-1,1.4757545E-1,2.065896E-1,5.32581E-3,2.6444784E-1,-1.6623187E-1,6.3896674E-1,-4.199633E-2,2.8207693E-1,9.109835E-2,1.1833072E-1,-1.1262321E-1,-2.2220089E-1,1.1072409E-2,6.75112E-1,-1.9378887E-1,-5.94564E-1,-1.1120396E-1,2.2931677E-1,3.854629E-2,-1.2816678E-2,-2.098069E-1,7.477405E-3,3.495112E-1,-2.6020202E-1,4.9665958E-2,2.565181E-1,-5.182367E-2,-5.0188463E-2,1.0252486E-1],"categories":[0],"categories_nodes":[0],"categories_segments":[0],"categories_sizes":[1],"default_left":[1,0,0,0,0,0,0,0,0,0,0,0,1,0,0,0,0,0,0,1,0,0,0,0,0,0,0,0,0,1,0,1,0,0,0,0,0,0,0,0,0,0,0,0,0],"id":7,"left_children":[1,3,5,7,9,11,13,15,-1,17,19,21,23,-1,25,27,-1,-1,-1,29,31,33,-1,-1,-1,-1,35,-1,-1,37,-1,39,41,-1,-1,43,-1,-1,-1,-1,-1,-1,-1,-1,-1],"loss_changes":[4.7064643E0,1.3283073E0,3.213872E0,1.1291244E0,9.9979407E-1,4.7642088E-1,1.1889029E0,1.2059938E0,0E0,4.7748226E-1,8.0968225E-1,9.8657733E-1,1.0086727E-1,0E0,7.1503645E-1,5.936148E-1,0E0,0E0,0E0,2.2658634E0,1.1030371E0,1.6792524E-1,0E0,0E0,0E0,0E0,1.0680833E0,0E0,0E0,1.2010788E0,0E0,1.2667559E0,2.8347182E0,0E0,0E0,9.739115E-1,0E0,0E0,0E0,0E0,0E0,0E0,0E0,0E0,0E0],"parents":[2147483647,0,0,1,1,2,2,3,3,4,4,5,5,6,6,7,7,9,9,10,10,11,11,12,12,14,14,15,15,19,19,20,20,21,21,26,26,29,29,31,31,32,32,35,35],"right_children":[2,4,6,8,10,12,14,16,-1,18,20,22,24,-1,26,28,-1,-1,-1,30,32,34,-1,-1,-1,-1,36,-1,-1,38,-1,40,42,-1,-1,44,-1,-1,-1,-1,-1,-1,-1,-1,-1],"split_conditions":[NaN,7.75E0,3E0,2.8E1,7E0,2.8E1,7.7417E0,2.3E1,-2.3456746E-1,3E0,7.8E0,2.4E1,5E1,1.7088728E-1,6E0,7.1417E0,1.4757545E-1,2.065896E-1,5.32581E-3,3.1E1,7.925E0,1.108833E2,-4.199633E-2,2.8207693E-1,9.109835E-2,1.1833072E-1,2.345E1,-2.2220089E-1,1.1072409E-2,2.1E1,-1.9378887E-1,2.9E1,8.0292E0,2.2931677E-1,3.854629E-2,1.5E1,-2.098069E-1,7.477405E-3,3.495112E-1,-2.6020202E-1,4.9665958E-2,2.565181E-1,-5.182367E-2,-5.0188463E-2,1.0252486E-1],"split_indices":[3,2,1,0,0,0,2,0,0,1,2,0,0,0,0,2,0,0,0,0,2,2,0,0,0,0,2,0,0,0,0,0,2,0,0,2,0,0,0,0,0,0,0,0,0],"split_type":[1,0,0,0,0,0,0,0,0,0,0,0,0,0,0,0,0,0,0,0,0,0,0,0,0,0,0,0,0,0,0,0,0,0,0,0,0,0,0,0,0,0,0,0,0],"sum_hessian":[9.984244E1,6.485616E1,3.498628E1,8.995832E0,5.586033E1,1.2476108E1,2.2510168E1,4.2354155E0,4.760417E0,3.3631935E0,5.2497135E1,5.330536E0,7.145572E0,2.8341498E0,1.967602E1,2.8469896E0,1.3884258E0,1.2646952E0,2.0984983E0,3.8940835E0,4.8603054E1,3.1567774E0,2.1737585E0,5.565836E0,1.5797364E0,2.28376E0,1.739226E1,1.2821512E0,1.5648383E0,2.8616955E0,1.032388E0,4.4169736E0,4.418608E1,2.134857E0,1.0219206E0,1.573713E1,1.6551284E0,1.6812962E0,1.1803994E0,3.14669E0,1.2702835E0,1.8736647E0,4.2312416E1,1.1329318E1,4.4078126E0],"tree_param":{"num_deleted":"0","num_feature":"4","num_nodes":"45","size_leaf_vector":"1"}},{"base_weights":[9.761683E-3,-1.16291575E-1,2.4726367E-1,-4.2047554E-1,-6.383765E-2,6.0845506E-1,4.865253E-2,-7.351156E-2,-2.0953913E-1,2.3685618E-1,-1.08521745E-1,3.0246466E-1,7.873799E-1,1.3285166E-1,-3.5241425E-1,2.5618884E-1,-1.9336271E-1,2.608502E-1,-1.06226996E-1,-4.2117658E-1,-4.4308297E-2,4.9724463E-1,-8.800453E-2,2.647259E-1,7.823443E-2,6.2265057E-2,2.163511E-1,-1.6264487E-3,-1.9889759E-1,-5.88103E-2,2.3354705E-1,4.1966578E-1,-1.7833605E-1,-8.093409E-2,-2.5266892E-1,4.8119968E-1,-1.1928601E-1,-5.9088398E-2,2.4046046E-1,1.4094453E-1,-3.481136E-2,1.5758803E-1,3.9851446E-2,6.334242E-2,-1.9792987E-1,2.1963948E-2,2.3089203E-1,-1.922281E-1,-1.949741E-2,3.6776416E-2,-5.1105812E-2],"categories":[0],"categories_nodes":[0],"categories_segments":[0],"categories_sizes":[1],"default_left":[1,0,0,0,0,0,0,0,0,0,0,0,1,0,1,0,0,0,0,0,0,0,0,0,0,0,0,0,0,0,0,0,0,0,0,0,0,0,0,0,1,0,0,0,0,0,0,0,0,0,0],"id":8,"left_children":[1,3,5,7,9,11,13,15,-1,17,19,21,23,25,27,29,-1,-1,31,33,35,37,-1,-1,-1,39,-1,-1,-1,-1,-1,41,-1,43,-1,45,47,-1,-1,-1,49,-1,-1,-1,-1,-1,-1,-1,-1,-1,-1],"loss_changes":[2.915886E0,9.8921853E-1,2.3920105E0,8.3476245E-1,7.7132493E-1,4.1279602E-1,8.190367E-1,1.1449075E0,0E0,1.7188892E0,9.650841E-1,8.4343576E-1,1.1415243E-1,7.7010596E-1,4.535057E-1,1.1008997E0,0E0,0E0,1.7258043E0,1.1110533E0,1.7031255E0,1.1931518E0,0E0,0E0,0E0,7.529426E-1,0E0,0E0,0E0,0E0,0E0,3.184837E-2,0E0,1.0960021E0,0E0,5.8075905E-1,1.0159782E0,0E0,0E0,0E0,3.6153176E-1,0E0,0E0,0E0,0E0,0E0,0E0,0E0,0E0,0E0,0E0],"parents":[2147483647,0,0,1,1,2,2,3,3,4,4,5,5,6,6,7,7,9,9,10,10,11,11,12,12,13,13,14,14,15,15,18,18,19,19,20,20,21,21,25,25,31,31,33,33,35,35,36,36,40,40],"right_children":[2,4,6,8,10,12,14,16,-1,18,20,22,24,26,28,30,-1,-1,32,34,36,38,-1,-1,-1,40,-1,-1,-1,-1,-1,42,-1,44,-1,46,48,-1,-1,-1,50,-1,-1,-1,-1,-1,-1,-1,-1,-1,-1],"split_conditions":[NaN,7.75E0,3E0,2.8E1,1.8E1,2.8E1,2.0575E1,7.25E0,-2.0953913E-1,3E0,2.5E1,1.3365E2,5E1,1.875E1,6E0,7.1417E0,-1.9336271E-1,2.608502E-1,2.1E1,2.2E1,2.8E1,2.1075E1,-8.800453E-2,2.647259E-1,7.823443E-2,7.7417E0,2.163511E-1,-1.6264487E-3,-1.9889759E-1,-5.88103E-2,2.3354705E-1,1.2E1,-1.7833605E-1,1.575E1,-2.5266892E-1,3E0,2.9E1,-5.9088398E-2,2.4046046E-1,1.4094453E-1,2E1,1.5758803E-1,3.9851446E-2,6.334242E-2,-1.9792987E-1,2.1963948E-2,2.3089203E-1,-1.922281E-1,-1.949741E-2,3.6776416E-2,-5.1105812E-2],"split_indices":[3,2,1,0,0,0,2,2,0,1,0,2,0,2,0,2,0,0,2,0,0,2,0,0,0,2,0,0,0,0,0,0,0,2,0,1,0,0,0,0,0,0,0,0,0,0,0,0,0,0,0],"split_type":[1,0,0,0,0,0,0,0,0,0,0,0,0,0,0,0,0,0,0,0,0,0,0,0,0,0,0,0,0,0,0,0,0,0,0,0,0,0,0,0,0,0,0,0,0,0,0,0,0,0,0],"sum_hessian":[9.543733E1,6.268034E1,3.2756992E1,8.18704E0,5.44933E1,1.088966E1,2.1867334E1,4.204162E0,3.9828777E0,6.4937906E0,4.799951E1,5.010814E0,5.878846E0,1.8625822E1,3.2415118E0,3.0148263E0,1.189336E0,1.7438194E0,4.749971E0,7.231309E0,4.0768204E1,3.9009666E0,1.1098477E0,4.4076614E0,1.4711846E0,1.7617863E1,1.0079594E0,2.011557E0,1.229955E0,1.9506074E0,1.0642189E0,2.3543801E0,2.3955908E0,4.6588373E0,2.5724716E0,4.4139013E0,3.63543E1,1.2963041E0,2.6046624E0,2.6505551E0,1.4967307E1,1.1130838E0,1.2412964E0,3.5186E0,1.1402375E0,2.3474123E0,2.066489E0,2.4096093E0,3.394469E1,6.9694715E0,7.9978356E0],"tree_param":{"num_deleted":"0","num_feature":"4","num_nodes":"51","size_leaf_vector":"1"}},{"base_weights":[9.685139E-3,-9.234409E-2,2.070899E-1,-1.7059654E-1,8.516116E-2,5.39563E-1,4.134139E-2,-1.1870025E-1,-2.639399E-1,5.6068325E-1,-1.1356043E-1,2.524581E-1,7.23733E-1,1.13313965E-1,-3.0977497E-1,1.7438954E-1,-1.67535E-1,1.2552078E-1,3.356307E-1,-2.3300289E-1,1.1220724E-1,5.3814346E-1,-1.4936529E-1,2.4825023E-1,6.710281E-2,4.553886E-1,2.4522241E-2,-1.3007551E-3,-1.814541E-1,-2.1622519E-1,3.463899E-1,1.544701E-1,-1.5504667E-1,6.673754E-1,-1.2626433E-1,4.1497357E-2,1.9851106E-1,-1.0152144E-1,3.3180933E-2,5.196872E-2,1.8952297E-1,-3.978034E-1,1.2952192E-1,-3.4872435E-2,-1.162457E-1,3.1323797E-1,-2.169404E-1,-1.2493464E-1,6.856929E-2,6.48546E-2,2.3389076E-1,-2.613567E-1,5.12251E-2,-1.8843621E-1,3.0221227E-3,1.3715087E-1,-2.4645986E-2],"categories":[0],"categories_nodes":[0],"categories_segments":[0],"categories_sizes":[1],"default_left":[1,0,0,0,0,0,0,0,0,0,0,0,1,0,1,0,0,0,0,0,0,0,0,0,0,0,0,0,0,1,0,0,0,0,0,0,0,0,0,0,0,0,0,0,0,0,0,0,0,0,0,0,0,0,0,0,0],"id":9,"left_children":[1,3,5,7,9,11,13,15,-1,17,19,21,23,25,27,-1,29,31,-1,-1,33,35,37,-1,-1,39,41,-1,-1,43,45,-1,47,49,51,-1,-1,-1,-1,-1,-1,53,55,-1,-1,-1,-1,-1,-1,-1,-1,-1,-1,-1,-1,-1,-1],"loss_changes":[1.8890153E0,8.742933E-1,1.7379556E0,1.4889253E0,1.9163015E0,3.747983E-1,6.011399E-1,1.5158957E0,0E0,1.3037848E0,2.2816796E0,7.2967017E-1,1.20416164E-1,5.756708E-1,3.649278E-1,0E0,1.0649642E0,5.679202E-1,0E0,0E0,1.6477044E0,8.251357E-2,1.9140042E-1,0E0,0E0,8.5855305E-2,7.78595E-1,0E0,0E0,5.843681E-1,3.5971043E0,0E0,4.3264186E-1,1.9245982E-2,2.162535E0,0E0,0E0,0E0,0E0,0E0,0E0,3.360963E-1,1.0006026E0,0E0,0E0,0E0,0E0,0E0,0E0,0E0,0E0,0E0,0E0,0E0,0E0,0E0,0E0],"parents":[2147483647,0,0,1,1,2,2,3,3,4,4,5,5,6,6,7,7,9,9,10,10,11,11,12,12,13,13,14,14,16,16,17,17,20,20,21,21,22,22,25,25,26,26,29,29,30,30,32,32,33,33,34,34,41,41,42,42],"right_children":[2,4,6,8,10,12,14,16,-1,18,20,22,24,26,28,-1,30,32,-1,-1,34,36,38,-1,-1,40,42,-1,-1,44,46,-1,48,50,52,-1,-1,-1,-1,-1,-1,54,56,-1,-1,-1,-1,-1,-1,-1,-1,-1,-1,-1,-1,-1,-1],"split_conditions":[NaN,2.97E1,3E0,2.7E1,3.70042E1,2.8E1,2.0575E1,1.3E1,-2.639399E-1,6.2E1,5.25542E1,2.4E1,5E1,1.8E1,6E0,1.7438954E-1,2.62875E1,2.8E1,3.356307E-1,-2.3300289E-1,5.79792E1,1.7E1,2.1075E1,2.4825023E-1,6.710281E-2,1.5E1,2.2E1,-1.3007551E-3,-1.814541E-1,3E1,5.2E1,1.544701E-1,4.8E1,5.64958E1,7.525E1,4.1497357E-2,1.9851106E-1,-1.0152144E-1,3.3180933E-2,5.196872E-2,1.8952297E-1,8.6833E0,7.8875E0,-3.4872435E-2,-1.162457E-1,3.1323797E-1,-2.169404E-1,-1.2493464E-1,6.856929E-2,6.48546E-2,2.3389076E-1,-2.613567E-1,5.12251E-2,-1.8843621E-1,3.0221227E-3,1.3715087E-1,-2.4645986E-2],"split_indices":[3,2,1,2,2,0,2,0,0,0,2,0,0,0,0,0,2,0,0,0,2,0,2,0,0,0,0,0,0,0,0,0,0,2,2,0,0,0,0,0,0,2,2,0,0,0,0,0,0,0,0,0,0,0,0,0,0],"split_type":[1,0,0,0,0,0,0,0,0,0,0,0,0,0,0,0,0,0,0,0,0,0,0,0,0,0,0,0,0,0,0,0,0,0,0,0,0,0,0,0,0,0,0,0,0,0,0,0,0,0,0,0,0,0,0,0,0],"sum_hessian":[9.183981E1,6.0897152E1,3.0942661E1,4.2291874E1,1.8605276E1,9.543716E0,2.1398945E1,4.0495934E1,1.7959396E0,4.94674E0,1.3658536E1,4.656082E0,4.8876343E0,1.8320787E1,3.0781586E0,1.9298618E0,3.8566074E1,3.4677248E0,1.4790151E0,2.849358E0,1.0809178E1,2.5230265E0,2.1330557E0,3.5054078E0,1.3822268E0,2.9246595E0,1.5396127E1,2.0110974E0,1.0670611E0,3.57576E1,2.8084738E0,1.102472E0,2.365253E0,2.707498E0,8.10168E0,1.0960127E0,1.4270136E0,1.060317E0,1.0727386E0,1.8873154E0,1.0373441E0,2.5103757E0,1.2885752E1,2.3636873E1,1.2120726E1,1.7140249E0,1.0944489E0,1.3557849E0,1.009468E0,1.122341E0,1.585157E0,1.7583975E0,6.3432827E0,1.2593049E0,1.2510707E0,4.602252E0,8.2835E0],"tree_param":{"num_deleted":"0","num_feature":"4","num_nodes":"57","size_leaf_vector":"1"}},{"base_weights":[1.2954256E-2,-5.850001E-1,4.3455448E-2,-2.832171E-1,2.7899727E-2,-3.930174E-2,1.9540204E-1,1.7870015E-1,-8.817806E-2,4.7920367E-1,6.219566E-2,4.1718853E-1,-1.1914112E-1,-4.2324445E-1,-4.216212E-2,5.8000165E-1,1.7086458E-3,2.2290103E-1,-1.6327327E-2,-9.015673E-2,7.0538217E-1,1.02850206E-1,-4.6585444E-1,9.961101E-2,-2.523001E-1,-4.954415E-1,-3.5986714E-3,2.6675975E-1,2.4218082E-1,4.216112E-2,-2.738232E-1,7.665864E-2,3.1303906E-1,1.15879625E-2,-2.1302892E-1,-1.9314593E-1,-3.5381734E-2,1.083111E-1,-1.8393269E-2,1.378409E-1,-1.6306086E-2,-3.724171E-2,9.126483E-2,-1.24084525E-1,1.703061E-3],"categories":[0],"categories_nodes":[2],"categories_segments":[0],"categories_sizes":[1],"default_left":[0,1,1,0,0,0,0,0,0,0,0,0,0,0,0,0,0,0,0,0,0,0,0,0,0,0,0,0,0,0,1,0,0,0,0,0,0,0,0,0,0,0,0,0,0],"id":10,"left_children":[1,3,5,-1,-1,7,9,11,13,15,17,19,21,23,25,27,-1,-1,29,-1,31,-1,33,-1,-1,35,37,39,-1,41,43,-1,-1,-1,-1,-1,-1,-1,-1,-1,-1,-1,-1,-1,-1],"loss_changes":[1.6528924E0,1.1589268E0,1.0870094E0,0E0,0E0,6.167176E-1,1.1206763E0,8.068836E-1,7.0283055E-1,4.5355797E-1,1.1807766E0,1.4823596E0,1.0435286E0,2.0251594E0,7.3601127E-1,3.4577942E-1,0E0,0E0,3.2146707E-1,0E0,4.4527674E-1,0E0,4.6806133E-1,0E0,0E0,1.09025896E-1,8.619112E-1,3.2248414E-1,0E0,8.0633646E-1,1.5638807E-1,0E0,0E0,0E0,0E0,0E0,0E0,0E0,0E0,0E0,0E0,0E0,0E0,0E0,0E0],"parents":[2147483647,0,0,1,1,2,2,5,5,6,6,7,7,8,8,9,9,10,10,11,11,12,12,13,13,14,14,15,15,18,18,20,20,22,22,25,25,26,26,27,27,29,29,30,30],"right_children":[2,4,6,-1,-1,8,10,12,14,16,18,20,22,24,26,28,-1,-1,30,-1,32,-1,34,-1,-1,36,38,40,-1,42,44,-1,-1,-1,-1,-1,-1,-1,-1,-1,-1,-1,-1,-1,-1],"split_conditions":[7.1417E0,2.5E1,NaN,-2.832171E-1,2.7899727E-2,2.1E1,3E0,1.87875E1,2.5E1,1.5155E2,7.6292E0,7.925E0,3E0,7.8E0,7.75E0,2.9125E1,1.7086458E-3,2.2290103E-1,2.0575E1,-9.015673E-2,1.9E1,1.02850206E-1,4E0,9.961101E-2,-2.523001E-1,6E1,2.8E1,1.99667E1,2.4218082E-1,1.11333E1,4E0,7.665864E-2,3.1303906E-1,1.15879625E-2,-2.1302892E-1,-1.9314593E-1,-3.5381734E-2,1.083111E-1,-1.8393269E-2,1.378409E-1,-1.6306086E-2,-3.724171E-2,9.126483E-2,-1.24084525E-1,1.703061E-3],"split_indices":[2,0,3,0,0,0,1,2,0,2,2,2,1,2,2,2,0,0,2,0,0,0,0,0,0,0,0,2,0,2,0,0,0,0,0,0,0,0,0,0,0,0,0,0,0],"split_type":[0,0,1,0,0,0,0,0,0,0,0,0,0,0,0,0,0,0,0,0,0,0,0,0,0,0,0,0,0,0,0,0,0,0,0,0,0,0,0,0,0,0,0,0,0],"sum_hessian":[8.8233604E1,3.3999717E0,8.483363E1,1.9662585E0,1.4337133E0,5.540101E1,2.9432623E1,9.6597395E0,4.5741272E1,8.572056E0,2.0860567E1,5.141841E0,4.517898E0,4.533402E0,4.120787E1,6.8821225E0,1.6899337E0,1.2821207E0,1.9578447E1,1.4608912E0,3.68095E0,1.9417797E0,2.5761185E0,1.6875638E0,2.845838E0,2.3020353E0,3.8905834E1,3.807725E0,3.0743973E0,1.6635965E1,2.942482E0,2.33277E0,1.3481797E0,1.1149805E0,1.4611379E0,1.1460896E0,1.1559457E0,4.5981464E0,3.430769E1,2.110366E0,1.6973588E0,1.0499356E1,6.136608E0,1.6415982E0,1.3008838E0],"tree_param":{"num_deleted":"0","num_feature":"4","num_nodes":"45","size_leaf_vector":"1"}},{"base_weights":[9.979501E-3,-5.1058847E-1,3.5347134E-2,-2.5830883E-1,2.2682915E-2,5.2988386E-1,1.1687915E-2,2.6913488E-1,-1.6485928E-3,-5.2440397E-2,1.7214085E-1,-2.98063E-3,-8.247845E-1,2.3867232E-1,7.308836E-2,-5.687388E-2,2.9711896E-1,-6.0352188E-2,-3.0596992E-1,-4.2496037E-1,1.9769952E-1,-1.9383344E-3,-3.2672963E-1,2.890543E-1,1.889965E-2,1.6517859E-2,-1.7372465E-1,2.3324084E-3,1.9504616E-1],"categories":[0],"categories_nodes":[20],"categories_segments":[0],"categories_sizes":[1],"default_left":[0,1,0,0,0,0,0,0,0,0,0,0,1,0,1,0,0,0,0,0,1,0,0,0,0,0,0,0,0],"id":11,"left_children":[1,3,5,-1,-1,7,9,-1,-1,11,13,15,17,-1,19,21,23,-1,-1,25,27,-1,-1,-1,-1,-1,-1,-1,-1],"loss_changes":[1.1696757E0,9.108423E-1,9.7769797E-1,0E0,0E0,7.5533867E-1,8.453016E-1,0E0,0E0,2.2449594E0,1.3893944E0,9.273893E-1,2.2521472E-1,0E0,1.4077058E0,2.5201254E0,1.3015356E0,0E0,0E0,3.711555E-1,1.5195982E0,0E0,0E0,0E0,0E0,0E0,0E0,0E0,0E0],"parents":[2147483647,0,0,1,1,2,2,5,5,6,6,9,9,10,10,11,11,12,12,14,14,15,15,16,16,19,19,20,20],"right_children":[2,4,6,-1,-1,8,10,-1,-1,12,14,16,18,-1,20,22,24,-1,-1,26,28,-1,-1,-1,-1,-1,-1,-1,-1],"split_conditions":[7.1417E0,2.5E1,7.25E0,-2.5830883E-1,2.2682915E-2,2.45E1,3E1,2.6913488E-1,-1.6485928E-3,2.77208E1,3.1E1,2.2025E1,7E0,2.3867232E-1,3E0,2.1E1,2.345E1,-6.0352188E-2,-3.0596992E-1,3.96E1,NaN,-1.9383344E-3,-3.2672963E-1,2.890543E-1,1.889965E-2,1.6517859E-2,-1.7372465E-1,2.3324084E-3,1.9504616E-1],"split_indices":[2,0,2,0,0,0,2,0,0,2,2,2,0,0,0,2,2,0,0,2,3,0,0,0,0,0,0,0,0],"split_type":[0,0,0,0,0,0,0,0,0,0,0,0,0,0,0,0,0,0,0,0,1,0,0,0,0,0,0,0,0],"sum_hessian":[8.620769E1,3.116969E0,8.309072E1,1.6573408E0,1.4596282E0,2.8167667E0,8.027395E1,1.2699828E0,1.5467839E0,5.7832985E1,2.2440968E1,5.5295784E1,2.5372005E0,2.112583E0,2.0328384E1,4.756443E1,7.7313538E0,1.0886865E0,1.4485141E0,3.5858967E0,1.6742487E1,4.6309006E1,1.2554234E0,1.2000588E0,6.531295E0,1.0277308E0,2.5581658E0,1.2508874E1,4.233613E0],"tree_param":{"num_deleted":"0","num_feature":"4","num_nodes":"29","size_leaf_vector":"1"}},{"base_weights":[5.7390276E-3,-4.4738507E-1,2.6877E-2,-2.3573954E-1,1.8456083E-2,4.3191028E-1,6.968521E-3,2.1693756E-1,-1.3489674E-3,1.5717614E-1,-9.990584E-3,-1.6931805E-1,8.295105E-3,1.802284E-1,-1.4930383E-2,-1.880512E-2,5.7576146E-2],"categories":[],"categories_nodes":[],"categories_segments":[],"categories_sizes":[],"default_left":[0,1,0,0,0,0,0,0,0,0,0,0,0,0,0,0,0],"id":12,"left_children":[1,3,5,-1,-1,7,9,-1,-1,-1,11,-1,13,-1,15,-1,-1],"loss_changes":[8.357078E-1,7.182018E-1,6.6712964E-1,0E0,0E0,4.959908E-1,7.0861065E-1,0E0,0E0,0E0,8.021337E-1,0E0,1.0703902E0,0E0,7.548654E-1,0E0,0E0],"parents":[2147483647,0,0,1,1,2,2,5,5,6,6,10,10,12,12,14,14],"right_children":[2,4,6,-1,-1,8,10,-1,-1,-1,12,-1,14,-1,16,-1,-1],"split_conditions":[7.1417E0,2.5E1,7.25E0,-2.3573954E-1,1.8456083E-2,2.45E1,2E0,2.1693756E-1,-1.3489674E-3,1.5717614E-1,3E0,-1.6931805E-1,6E0,1.802284E-1,5.25542E1,-1.880512E-2,5.7576146E-2],"split_indices":[2,0,2,0,0,0,0,0,0,0,0,0,0,0,2,0,0],"split_type":[0,0,0,0,0,0,0,0,0,0,0,0,0,0,0,0,0],"sum_hessian":[8.499631E1,2.889547E0,8.2106766E1,1.408694E0,1.4808531E0,2.8771448E0,7.9229614E1,1.3315811E0,1.5455637E0,1.567119E0,7.76625E1,1.5261428E0,7.613635E1,1.9340334E0,7.4202324E1,6.085124E1,1.3351085E1],"tree_param":{"num_deleted":"0","num_feature":"4","num_nodes":"17","size_leaf_vector":"1"}},{"base_weights":[6.2424727E-3,-5.378448E-2,1.266002E-1,2.8765103E-1,-8.2775995E-2,3.6841688E-1,2.8951908E-2,1.6076067E-1,4.0587295E-2,-4.1708863E-1,-5.4014828E-2,4.8472926E-1,-3.015601E-2,8.6307265E-2,-2.6551533E-1,6.2380936E-2,-4.9396574E-2,-3.278581E-2,-1.9001351E-1,-1.2811843E-3,-2.6149493E-1,2.4466763E-1,2.0924552E-1,6.114377E-3,3.2843235E-1,-1.11830615E-1,3.2373627E-3,3.7723623E-2,-2.8006282E-1,-1.7733724E-1,-1.1501164E-1,1.22087084E-1,-4.8260805E-3,1.1824154E-1,-2.1774952E-1,1.4387542E-1,-8.367257E-3,-8.345137E-3,2.0718287E-1,-1.9685824E-1,9.674617E-2,1.3257018E-1,-8.030541E-2,-3.3186126E-4,2.2905113E-1],"categories":[0],"categories_nodes":[0],"categories_segments":[0],"categories_sizes":[1],"default_left":[1,0,0,0,0,0,0,0,0,0,1,0,0,0,0,0,0,0,0,0,0,0,0,0,0,0,0,0,1,0,0,0,0,0,0,0,0,0,0,0,0,0,0,0,0],"id":13,"left_children":[1,3,5,7,9,11,13,-1,15,17,19,21,-1,23,25,-1,-1,-1,-1,27,29,31,-1,33,35,-1,-1,37,39,-1,41,-1,-1,43,-1,-1,-1,-1,-1,-1,-1,-1,-1,-1,-1],"loss_changes":[6.226207E-1,5.93723E-1,6.661433E-1,2.6829123E-1,4.952004E-1,4.9377596E-1,3.8608575E-1,0E0,1.5281172E-1,2.0484006E-1,5.546912E-1,1.7204392E-1,0E0,3.6209744E-1,1.15177065E-1,0E0,0E0,0E0,0E0,4.613152E-1,4.281633E-1,2.051385E-1,0E0,1.3255557E0,2.6363683E-1,0E0,0E0,1.612999E0,1.391623E0,0E0,8.287273E-1,0E0,0E0,1.075826E0,0E0,0E0,0E0,0E0,0E0,0E0,0E0,0E0,0E0,0E0,0E0],"parents":[2147483647,0,0,1,1,2,2,3,3,4,4,5,5,6,6,8,8,9,9,10,10,11,11,13,13,14,14,19,19,20,20,21,21,23,23,24,24,27,27,28,28,30,30,33,33],"right_children":[2,4,6,8,10,12,14,-1,16,18,20,22,-1,24,26,-1,-1,-1,-1,28,30,32,-1,34,36,-1,-1,38,40,-1,42,-1,-1,44,-1,-1,-1,-1,-1,-1,-1,-1,-1,-1,-1],"split_conditions":[NaN,1.3E1,3E0,2.1E1,1.9E1,1.5155E2,2.0575E1,1.6076067E-1,4E0,1.8E1,4.5E1,2.9125E1,-3.015601E-2,1.5E1,4.4E1,6.2380936E-2,-4.9396574E-2,-3.278581E-2,-1.9001351E-1,5.79792E1,4.8E1,1.99667E1,2.0924552E-1,1.35E1,1.78E1,-1.11830615E-1,3.2373627E-3,5.25542E1,3.5E1,-1.7733724E-1,5E1,1.22087084E-1,-4.8260805E-3,1.11333E1,-2.1774952E-1,1.4387542E-1,-8.367257E-3,-8.345137E-3,2.0718287E-1,-1.9685824E-1,9.674617E-2,1.3257018E-1,-8.030541E-2,-3.3186126E-4,2.2905113E-1],"split_indices":[3,0,1,2,0,2,2,0,0,0,0,2,0,2,0,0,0,0,0,2,0,2,0,2,2,0,0,2,0,0,0,0,0,2,0,0,0,0,0,0,0,0,0,0,0],"split_type":[1,0,0,0,0,0,0,0,0,0,0,0,0,0,0,0,0,0,0,0,0,0,0,0,0,0,0,0,0,0,0,0,0,0,0,0,0,0,0,0,0,0,0,0,0],"sum_hessian":[8.423688E1,5.657428E1,2.7662601E1,3.7295191E0,5.284476E1,7.159612E0,2.0502989E1,1.2773013E0,2.4522178E0,3.1165824E0,4.9728176E1,5.709728E0,1.4498843E0,1.7752182E1,2.7508075E0,1.3435767E0,1.1086413E0,1.9074128E0,1.2091697E0,4.0452778E1,9.2754E0,3.6928816E0,2.016846E0,1.4105598E1,3.646583E0,1.7301183E0,1.0206894E0,3.6246197E1,4.206582E0,1.9198202E0,7.3555803E0,1.9306117E0,1.76227E0,1.29588785E1,1.1467208E0,2.3175511E0,1.3290318E0,3.3809574E1,2.4366214E0,2.5350769E0,1.6715053E0,1.1750122E0,6.1805677E0,1.1778594E1,1.180284E0],"tree_param":{"num_deleted":"0","num_feature":"4","num_nodes":"45","size_leaf_vector":"1"}},{"base_weights":[7.6133716E-3,-3.8495132E-1,2.540178E-2,-2.1380614E-1,1.7722962E-2,6.9807386E-3,3.4451663E-1,4.9189653E-2,-3.543851E-1,1.7421669E-1,-6.023261E-2,-7.008223E-3,2.4527231E-1,-4.5974237E-1,5.6780722E-2,2.620449E-2,-1.8415329E-1,-1.0337974E-1,3.3241653E-1,-1.7451075E-1,-6.430831E-1,2.7238445E-2,-1.06283896E-1,2.3964716E-1,6.5157816E-2,-1.8519254E-1,1.0953044E-1,-2.3226897E-1,-4.9324945E-2],"categories":[],"categories_nodes":[],"categories_segments":[],"categories_sizes":[],"default_left":[0,1,1,0,0,1,0,1,0,0,0,0,0,0,0,1,0,0,0,0,0,0,0,0,0,0,0,0,0],"id":14,"left_children":[1,3,5,-1,-1,7,9,11,13,-1,-1,15,17,19,-1,21,-1,-1,23,25,27,-1,-1,-1,-1,-1,-1,-1,-1],"loss_changes":[5.912038E-1,5.763527E-1,4.7134075E-1,0E0,0E0,1.1951512E0,6.8042815E-1,7.7325064E-1,5.5654514E-1,0E0,0E0,1.1324762E0,9.177061E-1,2.6211596E-1,0E0,1.3463696E0,0E0,0E0,5.854492E-1,1.2225442E0,1.2286508E-1,0E0,0E0,0E0,0E0,0E0,0E0,0E0,0E0],"parents":[2147483647,0,0,1,1,2,2,5,5,6,6,7,7,8,8,11,11,12,12,13,13,15,15,18,18,19,19,20,20],"right_children":[2,4,6,-1,-1,8,10,12,14,-1,-1,16,18,20,-1,22,-1,-1,24,26,28,-1,-1,-1,-1,-1,-1,-1,-1],"split_conditions":[7.1417E0,2.5E1,5.6E1,-2.1380614E-1,1.7722962E-2,4.5E1,6.4E1,3.1E1,8.65E1,1.7421669E-1,-6.023261E-2,1.345E2,7.925E0,2.7E1,5.6780722E-2,2.8E1,-1.8415329E-1,-1.0337974E-1,8.0292E0,1.50458E1,6.5E1,2.7238445E-2,-1.06283896E-1,2.3964716E-1,6.5157816E-2,-1.8519254E-1,1.0953044E-1,-2.3226897E-1,-4.9324945E-2],"split_indices":[2,0,0,0,0,0,0,0,2,0,0,2,2,2,0,0,0,0,2,2,2,0,0,0,0,0,0,0,0],"split_type":[0,0,0,0,0,0,0,0,0,0,0,0,0,0,0,0,0,0,0,0,0,0,0,0,0,0,0,0,0],"sum_hessian":[8.2261765E1,2.6712189E0,7.9590546E1,1.1887531E0,1.4824657E0,7.621299E1,3.3775525E0,6.901559E1,7.197406E0,2.3113594E0,1.066193E0,5.439117E1,1.4624414E1,6.158307E0,1.0390989E0,5.247593E1,1.9152395E0,1.502149E0,1.3122265E1,3.1732988E0,2.9850082E0,4.5511368E1,6.964561E0,1.4242661E0,1.1697999E1,1.663923E0,1.5093757E0,1.8583728E0,1.1266356E0],"tree_param":{"num_deleted":"0","num_feature":"4","num_nodes":"29","size_leaf_vector":"1"}},{"base_weights":[-1.1838111E-3,9.310013E-2,-6.1524134E-2,4.819216E-1,-6.97857E-3,3.4435827E-2,-2.2858989E-1,1.11276336E-1,2.7558658E-1,-2.4167281E-1,1.5422876E-1,1.2807178E-1,-2.7264148E-1,-1.2301599E-2,-3.9486417E-1,-8.749659E-2,3.1027308E-1,-4.2875153E-1,1.7147225E-1,4.8193705E-1,-8.2547836E-2,6.251676E-2,2.3582809E-1,-2.629413E-1,-2.0220306E-2,-1.15693234E-1,1.639514E-1,-7.484496E-1,7.2047256E-2,1.2824908E-1,2.6734522E-2,-1.292304E-1,-6.522149E-1,1.1823449E-1,-5.1637355E-2,1.8866296E-1,2.5474128E-1,-1.2000693E-1,4.2369485E-2,-9.788122E-2,4.0617037E-1,-3.3136654E-1,1.5078843E-1,4.2078076E-3,2.995177E-1,-2.5426912E-1,-3.7061058E-2,5.5088615E-1,-1.4578047E-1,4.634284E-2,-1.4953591E-1,-5.6590088E-2,-2.3287308E-1,-6.2448516E-2,1.9841407E-1,-7.523407E-2,7.517529E-2,1.2744518E-2,-1.14615515E-1,4.0293106E-1,1.0044569E-2,2.5156792E-3,-2.0087714E-1,-3.8910672E-2,2.89048E-2,1.1363586E-1,3.84603E-2,4.4798203E-2,2.0783032E-1],"categories":[0,0],"categories_nodes":[9,43],"categories_segments":[0,1],"categories_sizes":[1,1],"default_left":[0,1,0,0,0,0,0,0,0,1,0,0,0,0,0,0,0,0,0,0,0,0,0,0,0,0,0,1,0,0,0,0,0,0,0,0,0,0,0,0,0,0,0,1,0,0,0,0,0,0,0,0,0,0,0,0,0,0,0,0,0,0,0,0,0,0,0,0,0],"id":15,"left_children":[1,3,5,7,9,11,13,15,-1,17,19,21,23,25,27,-1,29,31,33,35,37,39,-1,-1,41,-1,43,45,47,-1,-1,49,51,-1,-1,-1,53,-1,55,57,59,61,-1,63,65,-1,-1,67,-1,-1,-1,-1,-1,-1,-1,-1,-1,-1,-1,-1,-1,-1,-1,-1,-1,-1,-1,-1,-1],"loss_changes":[4.7910085E-1,1.28236E0,8.309086E-1,9.891223E-1,1.063564E0,9.9751496E-1,6.734348E-1,4.7415563E-1,0E0,9.5733356E-1,1.3348908E0,1.0868665E0,1.2233407E0,6.705634E-1,1.8090428E0,0E0,5.7503223E-2,4.6164942E-1,3.9513016E-1,7.840598E-2,4.3508717E-1,1.4197543E0,0E0,0E0,1.2672087E0,0E0,1.497119E-1,2.754388E-1,1.7354832E0,0E0,0E0,5.7270944E-1,1.0795927E-1,0E0,0E0,0E0,9.8246145E-1,0E0,5.798729E-1,7.291974E-1,2.80471E0,5.6227446E-1,0E0,6.449912E-2,2.457261E-3,0E0,0E0,9.16934E-2,0E0,0E0,0E0,0E0,0E0,0E0,0E0,0E0,0E0,0E0,0E0,0E0,0E0,0E0,0E0,0E0,0E0,0E0,0E0,0E0,0E0],"parents":[2147483647,0,0,1,1,2,2,3,3,4,4,5,5,6,6,7,7,9,9,10,10,11,11,12,12,13,13,14,14,16,16,17,17,18,18,19,19,20,20,21,21,24,24,26,26,27,27,28,28,31,31,32,32,36,36,38,38,39,39,40,40,41,41,43,43,44,44,47,47],"right_children":[2,4,6,8,10,12,14,16,-1,18,20,22,24,26,28,-1,30,32,34,36,38,40,-1,-1,42,-1,44,46,48,-1,-1,50,52,-1,-1,-1,54,-1,56,58,60,62,-1,64,66,-1,-1,68,-1,-1,-1,-1,-1,-1,-1,-1,-1,-1,-1,-1,-1,-1,-1,-1,-1,-1,-1,-1,-1],"split_conditions":[3E0,1.8E1,3.25E1,2E0,3.2E1,1.6E1,8.0292E0,3E1,2.7558658E-1,NaN,4.3E1,1.5E1,1.875E1,7.7333E0,1.55E1,-8.749659E-2,3.675E1,2E0,2.45E1,2.655E1,4.8E1,2.7E1,2.3582809E-1,-2.629413E-1,2.2E1,-1.15693234E-1,7.775E0,4.2E1,2.345E1,1.2824908E-1,2.6734522E-2,7.72875E1,2.4E1,1.1823449E-1,-5.1637355E-2,1.8866296E-1,7.92E1,-1.2000693E-1,3E1,8.1125E0,2.8E1,6E0,1.5078843E-1,NaN,4.9E1,-2.5426912E-1,-3.7061058E-2,1.67E1,-1.4578047E-1,4.634284E-2,-1.4953591E-1,-5.6590088E-2,-2.3287308E-1,-6.2448516E-2,1.9841407E-1,-7.523407E-2,7.517529E-2,1.2744518E-2,-1.14615515E-1,4.0293106E-1,1.0044569E-2,2.5156792E-3,-2.0087714E-1,-3.8910672E-2,2.89048E-2,1.1363586E-1,3.84603E-2,4.4798203E-2,2.0783032E-1],"split_indices":[1,0,0,1,0,2,2,2,0,3,0,2,2,2,2,0,2,1,0,2,0,0,0,0,0,0,2,0,2,0,0,2,0,0,0,0,2,0,2,2,0,0,0,3,0,0,0,2,0,0,0,0,0,0,0,0,0,0,0,0,0,0,0,0,0,0,0,0,0],"split_type":[0,0,0,0,0,0,0,0,0,1,0,0,0,0,0,0,0,0,0,0,0,0,0,0,0,0,0,0,0,0,0,0,0,0,0,0,0,0,0,0,0,0,0,1,0,0,0,0,0,0,0,0,0,0,0,0,0,0,0,0,0,0,0,0,0,0,0,0,0],"sum_hessian":[8.220666E1,3.1868326E1,5.0338333E1,5.7424765E0,2.6125849E1,3.2477592E1,1.786074E1,3.7848942E0,1.9575821E0,1.0434949E1,1.56909E1,2.5335165E1,7.142426E0,8.229654E0,9.631087E0,1.0973449E0,2.687549E0,7.1565666E0,3.2783825E0,6.1473346E0,9.543566E0,2.4035637E1,1.2995287E0,1.3767579E0,5.765668E0,2.2582247E0,5.97143E0,5.137529E0,4.4935584E0,1.1467346E0,1.5408146E0,3.732279E0,3.4242876E0,1.9001209E0,1.3782617E0,2.6593795E0,3.487955E0,2.0729346E0,7.4706306E0,1.6874674E1,7.1609635E0,3.8442118E0,1.9214561E0,3.2145848E0,2.7568448E0,4.1267204E0,1.0108085E0,2.4251258E0,2.0684326E0,2.4394507E0,1.2928284E0,1.254867E0,2.1694205E0,1.8593876E0,1.6285676E0,3.0176258E0,4.453005E0,1.1864726E1,5.009947E0,1.2968582E0,5.864105E0,2.4042778E0,1.4399343E0,1.1441461E0,2.0704389E0,1.0568225E0,1.7000222E0,1.1690146E0,1.2561111E0],"tree_param":{"num_deleted":"0","num_feature":"4","num_nodes":"69","size_leaf_vector":"1"}},{"base_weights":[5.18607E-4,-3.7584785E-1,1.7682401E-2,-1.9810264E-1,2.0922597E-3,3.853168E-1,-1.1756496E-3,1.7142174E-1,1.5279613E-2,-1.3749915E-1,1.5791334E-2,1.1450505E-1,3.8461755E-3,-1.483484E-1,2.084896E-2,1.2889467E-1,5.727866E-5],"categories":[],"categories_nodes":[],"categories_segments":[],"categories_sizes":[],"default_left":[0,1,0,0,0,0,0,0,0,0,0,0,0,0,0,0,0],"id":16,"left_children":[1,3,5,-1,-1,7,9,-1,-1,-1,11,-1,13,-1,15,-1,-1],"loss_changes":[5.3116876E-1,3.951956E-1,5.454506E-1,0E0,0E0,2.0976019E-1,5.9496635E-1,0E0,0E0,0E0,3.2207796E-1,0E0,6.262844E-1,0E0,6.01692E-1,0E0,0E0],"parents":[2147483647,0,0,1,1,2,2,5,5,6,6,10,10,12,12,14,14],"right_children":[2,4,6,-1,-1,8,10,-1,-1,-1,12,-1,14,-1,16,-1,-1],"split_conditions":[7.1417E0,2.5E1,7.25E0,-1.9810264E-1,2.0922597E-3,2.45E1,7.65E0,1.7142174E-1,1.5279613E-2,-1.3749915E-1,2E0,1.1450505E-1,3E0,-1.483484E-1,9E0,1.2889467E-1,5.727866E-5],"split_indices":[2,0,2,0,0,0,2,0,0,0,0,0,0,0,0,0,0],"split_type":[0,0,0,0,0,0,0,0,0,0,0,0,0,0,0,0,0],"sum_hessian":[8.0197044E1,2.5863361E0,7.761071E1,1.067839E0,1.5184971E0,2.8386788E0,7.4772026E1,1.3683494E0,1.4703295E0,1.7448938E0,7.302714E1,1.3301556E0,7.1696976E1,1.4389551E0,7.0258026E1,2.4272494E0,6.783077E1],"tree_param":{"num_deleted":"0","num_feature":"4","num_nodes":"17","size_leaf_vector":"1"}},{"base_weights":[-4.709991E-4,-5.1532906E-2,1.05168566E-1,-1.8394883E-1,-4.3652668E-3,-9.2505544E-2,1.452742E-1,-3.4575783E-2,-5.9322923E-1,1.7531732E-1,-5.1089637E-2,4.508011E-2,4.0663886E-1,-2.366479E-1,2.60946E-1,-2.1646136E-1,-3.543116E-2,1.5190245E-1,-1.3380693E-1,1.1596417E-1,-1.2839922E-1,2.1032284E-1,1.10779546E-1,7.8075957E-3,-2.3003659E-1,4.8405638E-1,-1.022367E-1,4.1453104E-2,-2.881973E-1,-1.590815E-2,3.6267358E-1,1.2450985E-1,-1.6768833E-1,-1.8615867E-1,5.6576423E-2,5.03909E-2,2.5319177E-1,1.1880732E-1,-7.6260775E-2,9.270481E-2,-4.291601E-2,5.3271454E-2,-1.1252307E-1,3.8186442E-2,-1.5150417E-1,1.4351073E-1,-1.0197787E-2,-1.0363865E-1,2.5637688E-2],"categories":[0],"categories_nodes":[0],"categories_segments":[0],"categories_sizes":[1],"default_left":[1,0,0,1,0,0,0,1,0,0,1,0,0,0,0,0,0,0,0,1,0,0,0,0,0,0,0,0,0,1,0,0,0,0,0,0,0,0,0,0,0,0,0,0,0,0,0,0,0],"id":17,"left_children":[1,3,5,7,9,-1,11,13,15,-1,17,19,21,23,-1,-1,-1,25,27,29,-1,-1,31,33,-1,35,37,39,41,43,45,-1,47,-1,-1,-1,-1,-1,-1,-1,-1,-1,-1,-1,-1,-1,-1,-1,-1],"loss_changes":[4.4179624E-1,3.440131E-1,4.8743343E-1,8.64493E-1,1.1778741E0,0E0,6.366083E-1,2.3380916E0,1.4697456E-1,0E0,6.8496615E-1,6.9361013E-1,5.152186E-1,1.3437668E0,0E0,0E0,0E0,1.0563953E0,7.873058E-1,5.7473516E-1,0E0,0E0,4.5784438E-1,1.0319856E0,0E0,4.6630037E-1,6.748744E-1,7.498924E-1,6.8816864E-1,9.295692E-1,2.977541E-1,0E0,1.6925034E-1,0E0,0E0,0E0,0E0,0E0,0E0,0E0,0E0,0E0,0E0,0E0,0E0,0E0,0E0,0E0,0E0],"parents":[2147483647,0,0,1,1,2,2,3,3,4,4,6,6,7,7,8,8,10,10,11,11,12,12,13,13,17,17,18,18,19,19,22,22,23,23,25,25,26,26,27,27,28,28,29,29,30,30,32,32],"right_children":[2,4,6,8,10,-1,12,14,16,-1,18,20,22,24,-1,-1,-1,26,28,30,-1,-1,32,34,-1,36,38,40,42,44,46,-1,48,-1,-1,-1,-1,-1,-1,-1,-1,-1,-1,-1,-1,-1,-1,-1,-1],"split_conditions":[NaN,7.925E0,4E0,3E1,8.0292E0,-9.2505544E-2,2.16792E1,2.7E1,7.7958E0,1.7531732E-1,1.8E1,1.78E1,2.45E1,7.8E0,2.60946E-1,-2.1646136E-1,-3.543116E-2,3E0,2E0,2.6E1,-1.2839922E-1,2.1032284E-1,2.79E1,2E1,-2.3003659E-1,2E0,8.6542E0,3.675E1,2.1E1,2.3E1,3.65E1,1.2450985E-1,7.82667E1,-1.8615867E-1,5.6576423E-2,5.03909E-2,2.5319177E-1,1.1880732E-1,-7.6260775E-2,9.270481E-2,-4.291601E-2,5.3271454E-2,-1.1252307E-1,3.8186442E-2,-1.5150417E-1,1.4351073E-1,-1.0197787E-2,-1.0363865E-1,2.5637688E-2],"split_indices":[3,2,0,0,2,0,2,0,2,0,0,2,0,2,0,0,0,1,1,0,0,0,2,0,0,1,2,2,0,0,0,0,2,0,0,0,0,0,0,0,0,0,0,0,0,0,0,0,0],"split_type":[1,0,0,0,0,0,0,0,0,0,0,0,0,0,0,0,0,0,0,0,0,0,0,0,0,0,0,0,0,0,0,0,0,0,0,0,0,0,0,0,0,0,0,0,0,0,0,0,0],"sum_hessian":[7.989801E1,5.4208153E1,2.5689854E1,1.3476119E1,4.0732033E1,1.6799338E0,2.400992E1,1.0667378E1,2.8087406E0,2.148786E0,3.858325E1,1.8203926E1,5.805992E0,9.32271E0,1.344668E0,1.8031659E0,1.0055746E0,1.0928296E1,2.7654953E1,1.6488264E1,1.7156632E0,2.2235267E0,3.5824656E0,7.0548773E0,2.2678328E0,4.34491E0,6.583386E0,1.3294678E1,1.4360274E1,1.1354513E1,5.133751E0,1.4776136E0,2.104852E0,1.0327749E0,6.0221024E0,3.0942013E0,1.2507086E0,1.163273E0,5.4201126E0,5.1506352E0,8.144043E0,2.093415E0,1.226686E1,9.3553E0,1.999213E0,3.8150444E0,1.3187066E0,1.0222816E0,1.0825703E0],"tree_param":{"num_deleted":"0","num_feature":"4","num_nodes":"49","size_leaf_vector":"1"}},{"base_weights":[4.205737E-4,-3.3255586E-1,1.4845562E-2,-2.8252767E-2,-1.2079088E-1,2.9313153E-1,1.174751E-4,1.336978E-1,-5.151016E-3,-1.1410748E-1,1.4257721E-2,2.9978504E-2,-2.4842481E-1,-1.0692519E-3,6.086071E-1,-1.6784912E-1,1.00709744E-1,-6.6736597E-3,9.950845E-2,2.7196518E-1,-4.97575E-5],"categories":[],"categories_nodes":[],"categories_segments":[],"categories_sizes":[],"default_left":[0,0,0,0,0,1,0,0,0,0,0,0,0,1,1,0,0,0,0,0,0],"id":18,"left_children":[1,3,5,-1,-1,7,9,-1,-1,-1,11,13,15,17,19,-1,-1,-1,-1,-1,-1],"loss_changes":[3.8674718E-1,1.7935485E-2,3.161647E-1,0E0,0E0,1.9116583E-1,4.0499905E-1,0E0,0E0,0E0,3.0714262E-1,1.2468406E0,9.520186E-1,4.7833055E-1,6.411971E-1,0E0,0E0,0E0,0E0,0E0,0E0],"parents":[2147483647,0,0,1,1,2,2,5,5,6,6,10,10,11,11,12,12,13,13,14,14],"right_children":[2,4,6,-1,-1,8,10,-1,-1,-1,12,14,16,18,20,-1,-1,-1,-1,-1,-1],"split_conditions":[7.1417E0,6.75E0,7.25E0,-2.8252767E-2,-1.2079088E-1,2.2E1,7.65E0,1.336978E-1,-5.151016E-3,-1.1410748E-1,1.356333E2,8.65E1,2.62375E2,5.6E1,4.4E1,-1.6784912E-1,1.00709744E-1,-6.6736597E-3,9.950845E-2,2.7196518E-1,-4.97575E-5],"split_indices":[2,2,2,0,0,0,2,0,0,0,2,2,2,0,0,0,0,0,0,0,0],"split_type":[0,0,0,0,0,0,0,0,0,0,0,0,0,0,0,0,0,0,0,0,0],"sum_hessian":[7.849111E1,2.343406E0,7.6147705E1,1.0649116E0,1.2784942E0,2.877359E0,7.327035E1,1.6366537E0,1.2407053E0,1.6974546E0,7.157289E1,6.836719E1,3.2057016E0,6.583292E1,2.5342765E0,2.1192605E0,1.086441E0,6.2771446E1,3.0614698E0,1.37311E0,1.1611664E0],"tree_param":{"num_deleted":"0","num_feature":"4","num_nodes":"21","size_leaf_vector":"1"}},{"base_weights":[2.3404914E-3,-3.997465E-2,8.861304E-2,-2.5073573E-1,-8.758378E-3,2.2072624E-2,3.310227E-1,-2.331866E-2,-1.9723763E-1,2.545251E-1,-4.1553278E-2,1.15247756E-1,-2.706206E-1,1.696189E-1,8.2900144E-2,2.4828982E-1,-1.0727742E-1,-5.5019967E-2,4.2171916E-1,-5.260417E-1,8.2712475E-4,-8.4872134E-2,2.595688E-1,6.966638E-2,-2.3850171E-1,-5.8798533E-2,1.3382399E-1,-4.8558135E-3,1.22714736E-1,1.9662097E-2,1.8023992E-1,-2.9327359E-2,-2.004116E-1,1.33538E-1,-3.6882598E-2,7.7172555E-2,-1.624724E-1,1.9995116E-2,5.883045E-1,-1.06620096E-1,1.6902864E-1,4.1682318E-2,-3.3082608E-2,-2.97722E-2,1.09112605E-1,7.25769E-2,-1.711088E-1,4.7406677E-2,2.2918586E-1],"categories":[0],"categories_nodes":[0],"categories_segments":[0],"categories_sizes":[1],"default_left":[1,0,1,0,0,1,0,0,0,0,0,1,0,0,0,0,0,0,0,0,0,1,0,0,0,0,0,0,0,0,0,0,0,0,1,0,0,0,0,0,0,0,0,0,0,0,0,0,0],"id":19,"left_children":[1,3,5,7,9,11,13,15,-1,17,19,21,23,-1,25,27,-1,-1,29,31,33,35,37,39,-1,-1,-1,-1,-1,-1,-1,-1,-1,-1,41,43,-1,45,47,-1,-1,-1,-1,-1,-1,-1,-1,-1,-1],"loss_changes":[2.9368085E-1,3.531557E-1,4.1956836E-1,6.2580943E-1,4.257164E-1,6.2669945E-1,2.8043866E-1,5.8655155E-1,0E0,4.7754762E-1,8.9595604E-1,5.2066284E-1,1.0495589E0,0E0,4.8304653E-1,1.6031882E-1,0E0,0E0,2.3226655E-1,1.4814335E-1,7.050961E-1,6.329229E-1,7.976341E-1,1.1023686E0,0E0,0E0,0E0,0E0,0E0,0E0,0E0,0E0,0E0,0E0,5.161593E-1,3.7835792E-1,0E0,1.05248E0,2.040559E-1,0E0,0E0,0E0,0E0,0E0,0E0,0E0,0E0,0E0,0E0],"parents":[2147483647,0,0,1,1,2,2,3,3,4,4,5,5,6,6,7,7,9,9,10,10,11,11,12,12,14,14,15,15,18,18,19,19,20,20,21,21,22,22,23,23,34,34,35,35,37,37,38,38],"right_children":[2,4,6,8,10,12,14,16,-1,18,20,22,24,-1,26,28,-1,-1,30,32,34,36,38,40,-1,-1,-1,-1,-1,-1,-1,-1,-1,-1,42,44,-1,46,48,-1,-1,-1,-1,-1,-1,-1,-1,-1,-1],"split_conditions":[NaN,7.75E0,3.1E1,7.25E0,7.8792E0,2.5E1,3.65E1,2.8E1,-1.9723763E-1,2.45E1,7.925E0,4E0,1.55E1,1.696189E-1,3.13875E1,2.3E1,-1.0727742E-1,-5.5019967E-2,7.775E0,3E1,8.0292E0,2E0,1.45E1,1.05E1,-2.3850171E-1,-5.8798533E-2,1.3382399E-1,-4.8558135E-3,1.22714736E-1,1.9662097E-2,1.8023992E-1,-2.9327359E-2,-2.004116E-1,1.33538E-1,1.8E1,1.55E1,-1.624724E-1,1.05167E1,1.9E1,-1.06620096E-1,1.6902864E-1,4.1682318E-2,-3.3082608E-2,-2.97722E-2,1.09112605E-1,7.25769E-2,-1.711088E-1,4.7406677E-2,2.2918586E-1],"split_indices":[3,2,0,2,2,0,0,0,0,0,2,0,2,0,2,0,0,0,2,0,2,0,2,2,0,0,0,0,0,0,0,0,0,0,0,2,0,2,0,0,0,0,0,0,0,0,0,0,0],"split_type":[1,0,0,0,0,0,0,0,0,0,0,0,0,0,0,0,0,0,0,0,0,0,0,0,0,0,0,0,0,0,0,0,0,0,0,0,0,0,0,0,0,0,0,0,0,0,0,0,0],"sum_hessian":[7.847619E1,5.3011597E1,2.5464592E1,5.9315667E0,4.7080032E1,2.0836199E1,4.6283927E0,4.482521E0,1.4490455E0,4.4658937E0,4.2614136E1,1.6264769E1,4.5714297E0,1.7225729E0,2.9058197E0,2.6149805E0,1.8675408E0,1.207143E0,3.258751E0,2.5098145E0,4.0104324E1,6.987548E0,9.277222E0,3.298254E0,1.2731757E0,1.9040136E0,1.001806E0,1.3285723E0,1.2864082E0,1.5472866E0,1.7114644E0,1.0453464E0,1.4644682E0,2.292292E0,3.781203E1,5.770952E0,1.2165955E0,5.9799905E0,3.2972314E0,1.9230083E0,1.3752457E0,1.0872402E1,2.6939629E1,3.9764214E0,1.7945307E0,4.775129E0,1.2048618E0,1.5064825E0,1.7907488E0],"tree_param":{"num_deleted":"0","num_feature":"4","num_nodes":"49","size_leaf_vector":"1"}},{"base_weights":[1.8763086E-3,-9.044385E-2,1.4635974E-2,8.532348E-2,-3.221509E-2,3.5034555E-1,1.5359507E-2,7.7006966E-2,-1.320801E-1,5.7717096E-2,2.1962354E-1,-2.1256427E-1,1.4486854E-1,1.6837406E-1,-3.1570858E-1,-2.694013E-1,-2.901524E-2,-7.8274354E-2,2.1713196E-1,-3.4749544E-1,8.0399066E-2,4.3567643E-1,-7.3886655E-2,6.1842814E-2,4.4494393E-1,-1.9545351E-1,5.5954862E-2,2.545933E-1,-1.23339765E-1,9.237878E-2,1.5296305E-2,-5.412742E-2,-1.9595313E-1,7.76385E-2,-4.1656625E-2,1.9172941E-1,6.042171E-2,-9.771437E-2,6.903681E-3,4.5444608E-2,-1.2788016E-1,1.8522368E-1,1.5071732E-2,-5.928688E-2,6.592498E-2],"categories":[0],"categories_nodes":[11],"categories_segments":[0],"categories_sizes":[1],"default_left":[0,0,0,1,0,0,0,0,0,0,0,1,0,0,0,0,0,0,0,0,0,0,0,0,0,0,0,0,0,0,0,0,0,0,0,0,0,0,0,0,0,0,0,0,0],"id":20,"left_children":[1,-1,3,5,7,9,11,13,15,17,-1,19,21,23,25,-1,27,-1,29,31,33,35,37,39,41,-1,-1,-1,43,-1,-1,-1,-1,-1,-1,-1,-1,-1,-1,-1,-1,-1,-1,-1,-1],"loss_changes":[3.081238E-1,0E0,2.552737E-1,5.632578E-1,5.182711E-1,6.6811544E-1,7.7785033E-1,8.74148E-1,1.9239196E0,2.9464373E-1,0E0,4.0644896E-1,1.0966754E0,5.386026E-1,9.084991E-1,0E0,1.9926363E0,0E0,3.9643645E-2,2.2655684E-1,1.8580303E-1,2.2052622E-1,2.6138583E-1,7.223109E-1,3.2171655E-1,0E0,0E0,0E0,5.904967E-1,0E0,0E0,0E0,0E0,0E0,0E0,0E0,0E0,0E0,0E0,0E0,0E0,0E0,0E0,0E0,0E0],"parents":[2147483647,0,0,2,2,3,3,4,4,5,5,6,6,7,7,8,8,9,9,11,11,12,12,13,13,14,14,16,16,18,18,19,19,20,20,21,21,22,22,23,23,24,24,28,28],"right_children":[2,-1,4,6,8,10,12,14,16,18,-1,20,22,24,26,-1,28,-1,30,32,34,36,38,40,42,-1,-1,-1,44,-1,-1,-1,-1,-1,-1,-1,-1,-1,-1,-1,-1,-1,-1,-1,-1],"split_conditions":[7.1417E0,-9.044385E-2,3E0,1.8E1,2.8E1,2E0,3.1E1,1.95E1,2.9E1,3E1,2.1962354E-1,NaN,4.3E1,1.11333E1,3.13875E1,-2.694013E-1,3E1,-7.8274354E-2,3.675E1,2.85E1,2.45E1,2.655E1,4.8E1,9.475E0,1.6E1,-1.9545351E-1,5.5954862E-2,2.545933E-1,2.02125E1,9.237878E-2,1.5296305E-2,-5.412742E-2,-1.9595313E-1,7.76385E-2,-4.1656625E-2,1.9172941E-1,6.042171E-2,-9.771437E-2,6.903681E-3,4.5444608E-2,-1.2788016E-1,1.8522368E-1,1.5071732E-2,-5.928688E-2,6.592498E-2],"split_indices":[2,0,1,0,0,1,0,2,0,2,0,3,0,2,2,0,0,0,2,0,0,2,0,2,2,0,0,0,2,0,0,0,0,0,0,0,0,0,0,0,0,0,0,0,0],"split_type":[0,0,0,0,0,0,0,0,0,0,0,1,0,0,0,0,0,0,0,0,0,0,0,0,0,0,0,0,0,0,0,0,0,0,0,0,0,0,0,0,0,0,0,0,0],"sum_hessian":[7.746382E1,2.2134085E0,7.525041E1,2.9667618E1,4.5582794E1,5.359277E0,2.4308342E1,2.1880762E1,2.3702034E1,3.6853566E0,1.67392E0,8.575303E0,1.5733039E1,1.8214363E1,3.666399E0,1.8963495E0,2.1805685E1,1.0166397E0,2.668717E0,5.743746E0,2.831557E0,6.328486E0,9.404553E0,1.4032735E1,4.1816273E0,2.019109E0,1.64729E0,1.3400333E0,2.046565E1,1.1738353E0,1.4948817E0,4.742153E0,1.0015928E0,1.4618143E0,1.3697428E0,2.4623506E0,3.8661354E0,1.9570489E0,7.447504E0,1.2438176E1,1.5945593E0,2.5173986E0,1.6642284E0,1.7171745E1,3.2939053E0],"tree_param":{"num_deleted":"0","num_feature":"4","num_nodes":"45","size_leaf_vector":"1"}},{"base_weights":[7.9219986E-4,2.0390816E-1,-1.3047567E-2,1.4707614E-1,-3.1181905E-2,-3.6677133E-2,1.7385364E-1,-1.146903E-1,1.0065391E-1,-1.2763598E-2,-1.8548512E-1,3.632315E-1,-1.5501525E-1,-4.207773E-2,4.6527937E-1,6.825748E-2,5.311944E-1,-1.203529E-1,7.922543E-2,-1.2135695E-2,-1.9169879E-1,4.5953393E-2,1.6522896E-1,-8.811297E-2,1.1934314E-1,2.3227628E-1,6.6641737E-3,-9.588816E-3,1.4398743E-1],"categories":[],"categories_nodes":[],"categories_segments":[],"categories_sizes":[],"default_left":[0,0,0,0,0,0,0,0,0,0,0,0,0,0,0,0,1,0,0,1,0,0,0,0,0,0,0,0,0],"id":21,"left_children":[1,3,5,-1,7,9,11,-1,-1,13,-1,15,17,19,21,23,25,-1,-1,27,-1,-1,-1,-1,-1,-1,-1,-1,-1],"loss_changes":[2.2077248E-1,3.5252324E-1,3.3133695E-1,0E0,6.035292E-1,9.121092E-1,5.8150196E-1,0E0,0E0,9.2423457E-1,0E0,2.4368751E-1,4.9615818E-1,1.0957854E0,1.736164E-2,4.9826372E-1,4.0996242E-1,0E0,0E0,5.98929E-1,0E0,0E0,0E0,0E0,0E0,0E0,0E0,0E0,0E0],"parents":[2147483647,0,0,1,1,2,2,4,4,5,5,6,6,9,9,11,11,12,12,13,13,14,14,15,15,16,16,19,19],"right_children":[2,4,6,-1,8,10,12,-1,-1,14,-1,16,18,20,22,24,26,-1,-1,28,-1,-1,-1,-1,-1,-1,-1,-1,-1],"split_conditions":[6E0,2.1E1,7.525E1,1.4707614E-1,3E0,6.1175E1,1.356333E2,-1.146903E-1,1.0065391E-1,5.25542E1,-1.8548512E-1,8.65E1,2.62375E2,3.70042E1,5.64958E1,4.7E1,4.4E1,-1.203529E-1,7.922543E-2,6.2E1,-1.9169879E-1,4.5953393E-2,1.6522896E-1,-8.811297E-2,1.1934314E-1,2.3227628E-1,6.6641737E-3,-9.588816E-3,1.4398743E-1],"split_indices":[0,2,2,0,0,2,2,0,0,2,0,2,2,2,2,0,0,0,0,0,0,0,0,0,0,0,0,0,0],"split_type":[0,0,0,0,0,0,0,0,0,0,0,0,0,0,0,0,0,0,0,0,0,0,0,0,0,0,0,0,0],"sum_hessian":[7.6590164E1,4.009673E0,7.258049E1,1.3184189E0,2.6912544E0,6.514774E1,7.432745E0,1.353085E0,1.3381695E0,6.355648E1,1.5912646E0,4.650364E0,2.7823813E0,6.0743595E1,2.8128865E0,2.197511E0,2.452853E0,1.7797819E0,1.0025994E0,5.8813766E1,1.9298288E0,1.2050701E0,1.6078163E0,1.0990845E0,1.0984263E0,1.3073509E0,1.1455021E0,5.7434704E1,1.3790625E0],"tree_param":{"num_deleted":"0","num_feature":"4","num_nodes":"29","size_leaf_vector":"1"}},{"base_weights":[4.506399E-3,-7.324355E-2,1.4700516E-2,7.404861E-2,-4.4229817E-2,2.5606996E-1,-5.6369465E-2,-2.0428361E-1,8.105838E-3,8.7345935E-2,8.227896E-1,-3.4093183E-1,1.4832892E-1,8.717947E-2,-1.4959718E-1,1.9848932E-1,-1.2049071E-1,6.0149413E-2,3.117688E-1,1.9755784E-1,-2.5963575E-1,2.6128057E-1,9.320394E-3,1.8171191E-1,3.0613746E-2,-4.106205E-1,6.586878E-2,3.3584943E-3,1.7787233E-1,1.06619924E-1,-4.6363562E-2,-1.8881704E-1,4.0643815E-2,-1.8349451E-1,3.0510815E-2,8.341226E-2,-2.4792989E-1,2.20508E-1,-6.724678E-2],"categories":[],"categories_nodes":[],"categories_segments":[],"categories_sizes":[],"default_left":[0,0,0,1,0,0,0,0,0,0,0,0,0,0,0,0,0,0,0,0,0,0,0,0,0,0,0,0,0,0,0,0,0,0,0,0,0,0,0],"id":22,"left_children":[1,-1,3,5,7,9,11,-1,13,15,17,19,21,23,25,27,-1,-1,-1,29,-1,-1,31,-1,33,35,37,-1,-1,-1,-1,-1,-1,-1,-1,-1,-1,-1,-1],"loss_changes":[1.986302E-1,0E0,2.6508635E-1,9.087044E-1,1.2780429E0,1.4489608E0,1.3766812E0,0E0,4.6540132E-1,8.0660766E-1,2.6710606E-1,2.9469151E0,1.391929E0,7.086483E-1,7.290932E-1,8.4785295E-1,0E0,0E0,0E0,3.6969054E-1,0E0,0E0,1.1086316E0,0E0,1.130933E0,1.8857205E0,1.6590856E0,0E0,0E0,0E0,0E0,0E0,0E0,0E0,0E0,0E0,0E0,0E0,0E0],"parents":[2147483647,0,0,2,2,3,3,4,4,5,5,6,6,8,8,9,9,10,10,11,11,12,12,13,13,14,14,15,15,19,19,22,22,24,24,25,25,26,26],"right_children":[2,-1,4,6,8,10,12,-1,14,16,18,20,22,24,26,28,-1,-1,-1,30,-1,-1,32,-1,34,36,38,-1,-1,-1,-1,-1,-1,-1,-1,-1,-1,-1,-1],"split_conditions":[7.1417E0,-7.324355E-2,1.4E1,2.1E1,1.52458E1,9.8375E0,2.7E1,-2.0428361E-1,5E1,8.1375E0,1.7E1,7.8792E0,2.8E1,1.6E1,2.9125E1,7.925E0,-1.2049071E-1,6.0149413E-2,3.117688E-1,2.45E1,-2.5963575E-1,2.6128057E-1,2.9E1,1.8171191E-1,1.875E1,2.345E1,3.1E1,3.3584943E-3,1.7787233E-1,1.06619924E-1,-4.6363562E-2,-1.8881704E-1,4.0643815E-2,-1.8349451E-1,3.0510815E-2,8.341226E-2,-2.4792989E-1,2.20508E-1,-6.724678E-2],"split_indices":[2,0,2,0,2,2,0,0,0,2,0,2,0,2,2,2,0,0,0,0,0,0,0,0,2,2,2,0,0,0,0,0,0,0,0,0,0,0,0],"split_type":[0,0,0,0,0,0,0,0,0,0,0,0,0,0,0,0,0,0,0,0,0,0,0,0,0,0,0,0,0,0,0,0,0,0,0,0,0,0,0],"sum_hessian":[7.594589E1,2.087152E0,7.385874E1,3.6671116E1,3.7187626E1,1.4905048E1,2.176607E1,1.9122367E0,3.5275387E1,1.237491E1,2.530138E0,8.828105E0,1.29379635E1,2.3792711E1,1.1482676E1,1.0567125E1,1.8077855E0,1.1500227E0,1.3801153E0,4.663629E0,4.164476E0,1.2378622E0,1.1700101E1,1.3853619E0,2.240735E1,4.7828383E0,6.699837E0,7.862097E0,2.7050283E0,3.213644E0,1.4499854E0,1.2719054E0,1.0428196E1,1.4752287E0,2.0932121E1,1.925383E0,2.8574553E0,1.5618678E0,5.1379695E0],"tree_param":{"num_deleted":"0","num_feature":"4","num_nodes":"39","size_leaf_vector":"1"}},{"base_weights":[1.6470843E-3,-3.8267896E-2,8.3953604E-2,-2.1740764E-2,-1.0774202E-1,2.8140765E-1,9.830469E-3,-5.2581154E-2,4.1826802E-1,-3.1358697E-2,5.3245604E-1,1.07236855E-1,-5.5129133E-2,8.984412E-3,-1.9909911E-1,1.8175013E-1,7.3302267E-3,9.6921615E-2,-9.624484E-2,2.0295817E-1,1.9871602E-2,6.311852E-2,-9.638987E-2,-1.4304525E-1,1.3398764E-1,-4.2247456E-1,-3.97092E-2,-1.7021881E-2,-3.6056423E-1,5.9006643E-2,-5.8049712E-2,2.7334005E-1,5.6720516E-3,-1.3859484E-1,-3.9082255E-2,1.4504898E-1,-5.4991137E-2,-2.8933944E-2,1.1373245E-1,-1.4229335E-1,-1.2796081E-2],"categories":[0],"categories_nodes":[0],"categories_segments":[0],"categories_sizes":[1],"default_left":[1,0,0,0,0,0,0,1,0,0,1,0,0,0,0,0,0,0,0,0,0,0,0,0,0,0,0,0,0,0,0,0,0,0,0,0,0,0,0,0,0],"id":23,"left_children":[1,3,5,7,-1,9,11,13,15,17,19,-1,21,23,25,-1,-1,-1,-1,-1,-1,-1,27,29,31,33,35,37,39,-1,-1,-1,-1,-1,-1,-1,-1,-1,-1,-1,-1],"loss_changes":[2.5361052E-1,2.6802742E-1,3.6612397E-1,7.0769566E-1,0E0,5.540062E-1,4.5691952E-1,4.3575597E-1,2.3793525E-1,5.1312953E-1,2.1389747E-1,0E0,2.0849349E-1,6.811203E-1,4.9154723E-1,0E0,0E0,0E0,0E0,0E0,0E0,0E0,3.199986E-1,3.157513E-1,1.7384981E0,7.252097E-3,7.9752576E-1,4.4591254E-1,1.0792613E-1,0E0,0E0,0E0,0E0,0E0,0E0,0E0,0E0,0E0,0E0,0E0,0E0],"parents":[2147483647,0,0,1,1,2,2,3,3,5,5,6,6,7,7,8,8,9,9,10,10,12,12,13,13,14,14,22,22,23,23,24,24,25,25,26,26,27,27,28,28],"right_children":[2,4,6,8,-1,10,12,14,16,18,20,-1,22,24,26,-1,-1,-1,-1,-1,-1,-1,28,30,32,34,36,38,40,-1,-1,-1,-1,-1,-1,-1,-1,-1,-1,-1,-1],"split_conditions":[NaN,1.534625E2,3E0,8.65E1,-1.0774202E-1,2.8E1,7.7417E0,3.25E1,3.9E1,2.4E1,5E1,1.07236855E-1,6E0,2.7E1,4.2E1,1.8175013E-1,7.3302267E-3,9.6921615E-2,-9.624484E-2,2.0295817E-1,1.9871602E-2,6.311852E-2,1.78E1,7.2292E0,2.8E1,3.9E1,4.5E1,1.55E1,3.2E1,5.9006643E-2,-5.8049712E-2,2.7334005E-1,5.6720516E-3,-1.3859484E-1,-3.9082255E-2,1.4504898E-1,-5.4991137E-2,-2.8933944E-2,1.1373245E-1,-1.4229335E-1,-1.2796081E-2],"split_indices":[3,2,1,2,0,0,2,0,0,0,0,0,0,0,0,0,0,0,0,0,0,0,2,2,0,0,0,2,0,0,0,0,0,0,0,0,0,0,0,0,0],"split_type":[1,0,0,0,0,0,0,0,0,0,0,0,0,0,0,0,0,0,0,0,0,0,0,0,0,0,0,0,0,0,0,0,0,0,0,0,0,0,0,0,0],"sum_hessian":[7.521849E1,5.1014027E1,2.4204464E1,4.9530613E1,1.4834135E0,5.843003E0,1.8361462E1,4.710921E1,2.4214034E0,2.991348E0,2.8516545E0,2.1819892E0,1.6179472E1,3.3831985E1,1.32772255E1,1.2755958E0,1.1458076E0,1.2925433E0,1.6988047E0,1.8338556E0,1.0177989E0,1.6247296E0,1.4554743E1,1.5200597E1,1.8631388E1,4.8415327E0,8.435693E0,1.2010706E1,2.5440366E0,1.5907531E0,1.3609844E1,1.510897E0,1.7120491E1,3.7530391E0,1.0884937E0,1.3068647E0,7.1288276E0,1.0634919E1,1.375787E0,1.5113271E0,1.0327096E0],"tree_param":{"num_deleted":"0","num_feature":"4","num_nodes":"41","size_leaf_vector":"1"}},{"base_weights":[9.244642E-3,-4.64703E-3,2.2913498E-1,1.5553784E-2,-3.1628627E-1,1.2976107E-1,-6.7431994E-2,2.6103212E-3,1.182485E-1,2.8651595E-2,-1.5037283E-1,1.971906E-2,-1.1559929E-1,7.981996E-3,1.1208896E-1,9.26404E-3,-1.6357416E-1],"categories":[],"categories_nodes":[],"categories_segments":[],"categories_sizes":[],"default_left":[1,1,0,1,0,0,0,1,0,0,0,0,0,0,0,0,0],"id":24,"left_children":[1,3,5,7,9,-1,-1,11,-1,-1,-1,13,-1,15,-1,-1,-1],"loss_changes":[2.2965136E-1,4.5419407E-1,5.0959903E-1,3.3208063E-1,3.8232708E-1,0E0,0E0,4.505262E-1,0E0,0E0,0E0,2.6646638E-1,0E0,8.251326E-1,0E0,0E0,0E0],"parents":[2147483647,0,0,1,1,2,2,3,3,4,4,7,7,11,11,13,13],"right_children":[2,4,6,8,10,-1,-1,12,-1,-1,-1,14,-1,16,-1,-1,-1],"split_conditions":[5.6E1,5E1,6.4E1,4.8E1,2.7E1,1.2976107E-1,-6.7431994E-2,4.5E1,1.182485E-1,2.8651595E-2,-1.5037283E-1,2.27525E2,-1.1559929E-1,1.356333E2,1.1208896E-1,9.26404E-3,-1.6357416E-1],"split_indices":[0,0,0,0,2,0,0,0,0,0,0,2,0,2,0,0,0],"split_type":[0,0,0,0,0,0,0,0,0,0,0,0,0,0,0,0,0],"sum_hessian":[7.3832466E1,7.036593E1,3.466533E0,6.697465E1,3.3912833E0,2.426342E0,1.0401909E0,6.573428E1,1.2403628E0,1.2009945E0,2.1902888E0,6.386684E1,1.867445E0,6.2806484E1,1.0603547E0,6.12169E1,1.5895834E0],"tree_param":{"num_deleted":"0","num_feature":"4","num_nodes":"17","size_leaf_vector":"1"}},{"base_weights":[4.979935E-3,-7.446903E-2,1.5428279E-2,-2.2450944E-2,9.1897644E-2,7.2889924E-2,-6.823615E-2,1.4015734E-1,4.088468E-2,1.8351786E-1,-2.4001598E-1,-6.2874905E-3,-3.029737E-1,2.6340014E-1,-4.746789E-2,1.8180549E-1,4.8382226E-2,-2.0218512E-1,7.63815E-2,1.6259961E-1,-1.2599175E-1,-4.3760788E-1,1.9839346E-2,-2.1199738E-3,4.887288E-1,6.0339817E-3,-2.763074E-1,-1.675048E-2,6.1793614E-2,1.8508431E-1,-1.27314E-1,1.4460278E-2,1.9889478E-1,-8.44732E-2,1.6996312E-3,-1.961363E-3,-1.8027668E-1,9.112128E-2,-7.29325E-2,1.8970847E-1,1.84956E-2,-1.7720664E-2,6.8252936E-2,-1.2243829E-1,-2.561807E-3],"categories":[0],"categories_nodes":[2],"categories_segments":[0],"categories_sizes":[1],"default_left":[0,0,1,0,0,0,0,0,0,0,0,1,0,0,0,0,0,0,0,1,0,0,0,0,1,0,1,0,0,0,0,0,0,0,0,0,0,0,0,0,0,0,0,0,0],"id":25,"left_children":[1,-1,3,5,7,9,11,-1,13,15,17,19,21,23,25,-1,27,-1,29,31,33,35,-1,37,39,41,43,-1,-1,-1,-1,-1,-1,-1,-1,-1,-1,-1,-1,-1,-1,-1,-1,-1,-1],"loss_changes":[2.0222935E-1,0E0,2.1340278E-1,2.2146899E-1,4.4737348E-1,6.1776584E-1,4.9283165E-1,0E0,4.557495E-1,7.0214105E-1,7.0533407E-1,5.8532137E-1,3.8090628E-1,3.9354587E-1,2.0962428E-1,0E0,1.8877509E-1,0E0,1.2505077E0,6.5641934E-1,3.4805772E-1,3.706665E-1,0E0,3.6921436E-1,1.7897213E-1,2.2604746E-1,1.10877156E-1,0E0,0E0,0E0,0E0,0E0,0E0,0E0,0E0,0E0,0E0,0E0,0E0,0E0,0E0,0E0,0E0,0E0,0E0],"parents":[2147483647,0,0,2,2,3,3,4,4,5,5,6,6,8,8,9,9,10,10,11,11,12,12,13,13,14,14,16,16,18,18,19,19,20,20,21,21,23,23,24,24,25,25,26,26],"right_children":[2,-1,4,6,8,10,12,-1,14,16,18,20,22,24,26,-1,28,-1,30,32,34,36,-1,38,40,42,44,-1,-1,-1,-1,-1,-1,-1,-1,-1,-1,-1,-1,-1,-1,-1,-1,-1,-1],"split_conditions":[7.1417E0,-7.446903E-2,NaN,2E0,7.7417E0,6.1E1,2.345E1,1.4015734E-1,3E0,2.7E1,2.775E1,2.1E1,4.71E1,2.8E1,2.0575E1,1.8180549E-1,8.65E1,-2.0218512E-1,3.1275E1,2E1,2.9E1,9E0,1.9839346E-2,2.4E1,5E1,1.55E1,4E0,-1.675048E-2,6.1793614E-2,1.8508431E-1,-1.27314E-1,1.4460278E-2,1.9889478E-1,-8.44732E-2,1.6996312E-3,-1.961363E-3,-1.8027668E-1,9.112128E-2,-7.29325E-2,1.8970847E-1,1.84956E-2,-1.7720664E-2,6.8252936E-2,-1.2243829E-1,-2.561807E-3],"split_indices":[2,0,3,1,2,0,2,0,1,2,2,0,2,0,2,0,2,0,2,0,0,0,0,0,0,2,0,0,0,0,0,0,0,0,0,0,0,0,0,0,0,0,0,0,0],"split_type":[0,0,1,0,0,0,0,0,0,0,0,0,0,0,0,0,0,0,0,0,0,0,0,0,0,0,0,0,0,0,0,0,0,0,0,0,0,0,0,0,0,0,0,0,0],"sum_hessian":[7.399157E1,2.0303078E0,7.196126E1,4.8595703E1,2.3365555E1,1.5573732E1,3.3021973E1,1.8197427E0,2.154581E1,1.18113365E1,3.7623954E0,2.693931E1,6.082662E0,5.560496E0,1.5985315E1,2.0178928E0,9.793444E0,1.1099882E0,2.6524072E0,1.1025469E1,1.5913842E1,4.3209615E0,1.7617005E0,3.007337E0,2.5531588E0,1.3745337E1,2.239979E0,6.283759E0,3.5096846E0,1.1639346E0,1.4884727E0,9.866171E0,1.1592978E0,6.7721515E0,9.141691E0,1.4729985E0,2.847963E0,1.2105494E0,1.7967877E0,1.5508941E0,1.0022645E0,1.1189481E1,2.5558562E0,1.1497717E0,1.0902072E0],"tree_param":{"num_deleted":"0","num_feature":"4","num_nodes":"45","size_leaf_vector":"1"}},{"base_weights":[6.635856E-3,-5.1335683E-3,1.8998435E-1,1.781265E-2,-2.0514964E-1,-3.4231037E-2,1.4204562E-1,5.6534237E-3,8.619431E-2,-2.8378558E-1,4.1133635E-2,2.410451E-2,-2.7563515E-1,-5.605227E-2,-4.3994656E-1,-7.111543E-3,1.8369229E-1,-3.709595E-3,-1.1328204E-1,-1.4127703E-1,1.11860014E-1,-1.5675196E-1,-3.805063E-2,4.5517595E-3,-1.22175984E-1,-2.203898E-2,1.3655382E-1],"categories":[],"categories_nodes":[],"categories_segments":[],"categories_sizes":[],"default_left":[1,1,0,1,0,0,0,1,0,0,0,1,0,0,0,0,0,0,0,0,0,0,0,0,0,0,0],"id":26,"left_children":[1,3,5,7,9,-1,-1,11,-1,13,-1,15,17,19,21,23,25,-1,-1,-1,-1,-1,-1,-1,-1,-1,-1],"loss_changes":[1.5993974E-1,3.258278E-1,4.393654E-1,2.0774572E-1,2.35495E-1,0E0,0E0,3.2922804E-1,0E0,1.9815278E-1,0E0,2.9645973E-1,1.002031E-1,8.3303314E-1,2.6031137E-2,4.5663008E-1,7.1275675E-1,0E0,0E0,0E0,0E0,0E0,0E0,0E0,0E0,0E0,0E0],"parents":[2147483647,0,0,1,1,2,2,3,3,4,4,7,7,9,9,11,11,12,12,13,13,14,14,15,15,16,16],"right_children":[2,4,6,8,10,-1,-1,12,-1,14,-1,16,18,20,22,24,26,-1,-1,-1,-1,-1,-1,-1,-1,-1,-1],"split_conditions":[5.6E1,4.5E1,3E1,4.2E1,8.65E1,-3.4231037E-2,1.4204562E-1,3.65E1,8.619431E-2,2.7E1,4.1133635E-2,3.1E1,2E0,1.50458E1,5.2E1,1.345E2,1.875E1,-3.709595E-3,-1.1328204E-1,-1.4127703E-1,1.11860014E-1,-1.5675196E-1,-3.805063E-2,4.5517595E-3,-1.22175984E-1,-2.203898E-2,1.3655382E-1],"split_indices":[0,0,2,0,2,0,0,0,0,2,0,0,1,2,0,2,2,0,0,0,0,0,0,0,0,0,0],"split_type":[0,0,0,0,0,0,0,0,0,0,0,0,0,0,0,0,0,0,0,0,0,0,0,0,0,0,0],"sum_hessian":[7.266606E1,6.919624E1,3.469813E0,6.289209E1,6.3041544E0,1.9624151E0,1.507398E0,6.1153957E1,1.7381325E0,5.265287E0,1.0388677E0,5.8247524E1,2.906432E0,2.6946106E0,2.5706763E0,4.951719E1,8.730336E0,1.1244904E0,1.7819414E0,1.3199552E0,1.3746554E0,1.5050683E0,1.0656079E0,4.7816357E1,1.7008325E0,4.858097E0,3.8722386E0],"tree_param":{"num_deleted":"0","num_feature":"4","num_nodes":"27","size_leaf_vector":"1"}},{"base_weights":[2.836682E-3,5.02703E-2,-4.8466E-2,-2.1194125E-2,3.4350815E-1,-1.7113212E-1,-6.7549637E-3,6.425693E-2,-2.0082232E-1,3.3481544E-1,3.8000427E-2,1.6742479E-2,-1.05665386E-1,-4.146379E-2,4.734093E-1,1.680706E-1,-4.384816E-1,-3.9183167E-1,3.410567E-1,-1.1659856E-1,9.5911436E-2,-2.0325844E-1,8.374328E-2,5.371244E-2,1.6320968E-1,-2.2083588E-1,-6.528233E-2,-2.3894351E-2,-1.5675183E-1,9.562062E-2,1.729773E-1,-2.2332968E-2,-1.7351857E-1,1.7871861E-1,1.5536488E-2,6.468708E-2,-1.5319543E-1,6.9667496E-2,-1.1962291E-1,-5.0660614E-2,9.834202E-2,-6.858486E-2,5.2532904E-2,-5.0633576E-2,4.9205277E-2],"categories":[0],"categories_nodes":[18],"categories_segments":[0],"categories_sizes":[1],"default_left":[0,0,0,0,1,0,1,0,0,0,0,1,0,0,0,0,1,0,1,1,0,0,1,0,0,0,0,0,0,0,0,0,0,0,0,0,0,0,0,0,0,0,0,0,0],"id":27,"left_children":[1,3,5,7,9,-1,11,13,15,-1,17,19,-1,21,23,-1,25,27,29,31,33,-1,35,-1,-1,-1,37,-1,-1,39,-1,41,-1,-1,43,-1,-1,-1,-1,-1,-1,-1,-1,-1,-1],"loss_changes":[1.8120322E-1,8.1746334E-1,7.7560127E-1,5.0450253E-1,1.7593141E0,0E0,2.8321886E-1,9.9117666E-1,2.1568766E0,0E0,9.81097E-1,3.5893837E-1,0E0,1.551421E0,1.4686584E-4,0E0,9.086784E-1,8.711228E-2,1.9634503E-1,5.409673E-1,8.431556E-1,0E0,1.409111E0,0E0,0E0,0E0,5.805783E-1,0E0,0E0,2.5980055E-1,0E0,5.127732E-1,0E0,0E0,5.5603445E-1,0E0,0E0,0E0,0E0,0E0,0E0,0E0,0E0,0E0,0E0],"parents":[2147483647,0,0,1,1,2,2,3,3,4,4,6,6,7,7,8,8,10,10,11,11,13,13,14,14,16,16,17,17,18,18,19,19,20,20,22,22,26,26,29,29,31,31,34,34],"right_children":[2,4,6,8,10,-1,12,14,16,-1,18,20,-1,22,24,-1,26,28,30,32,34,-1,36,-1,-1,-1,38,-1,-1,40,-1,42,-1,-1,44,-1,-1,-1,-1,-1,-1,-1,-1,-1,-1],"split_conditions":[1.4E1,1.05E1,1.52458E1,8.05E0,1.6E1,-1.7113212E-1,6.1E1,7.925E0,2E1,3.3481544E-1,2.7E1,2E1,-1.05665386E-1,2E1,2.6E1,1.680706E-1,2.7E1,1.2275E1,NaN,1.8E1,2.45E1,-2.0325844E-1,3E1,5.371244E-2,1.6320968E-1,-2.2083588E-1,3.25E1,-2.3894351E-2,-1.5675183E-1,4E1,1.729773E-1,2.97E1,-1.7351857E-1,1.7871861E-1,3.05E1,6.468708E-2,-1.5319543E-1,6.9667496E-2,-1.1962291E-1,-5.0660614E-2,9.834202E-2,-6.858486E-2,5.2532904E-2,-5.0633576E-2,4.9205277E-2],"split_indices":[2,2,2,2,0,0,0,2,0,0,0,0,0,0,0,0,0,2,3,0,0,0,0,0,0,0,0,0,0,0,0,2,0,0,2,0,0,0,0,0,0,0,0,0,0],"split_type":[0,0,0,0,0,0,0,0,0,0,0,0,0,0,0,0,0,0,1,0,0,0,0,0,0,0,0,0,0,0,0,0,0,0,0,0,0,0,0,0,0,0,0,0,0],"sum_hessian":[7.246164E1,3.766101E1,3.480063E1,3.1027164E1,6.633846E0,1.6371561E0,3.316347E1,2.1460468E1,9.566695E0,1.1280981E0,5.505748E0,3.1942375E1,1.2210964E0,1.776805E1,3.6924198E0,1.9535444E0,7.613151E0,2.1555479E0,3.3501997E0,1.1723754E1,2.021862E1,2.1968045E0,1.5571244E1,1.3984842E0,2.2939355E0,3.6943421E0,3.9188092E0,1.1109585E0,1.0445894E0,2.3291285E0,1.0210713E0,1.0606941E1,1.116812E0,1.912671E0,1.830595E1,1.3265272E1,2.3059714E0,2.231499E0,1.6873102E0,1.2163047E0,1.112824E0,5.1101236E0,5.496818E0,8.106434E0,1.0199516E1],"tree_param":{"num_deleted":"0","num_feature":"4","num_nodes":"45","size_leaf_vector":"1"}},{"base_weights":[-1.0426587E-3,-1.1311597E-2,8.205377E-2,1.4455555E-2,-1.1169054E-1,-1.485568E-2,1.8936126E-1,-1.8954158E-1,1.2607457E-1,2.2220492E-2,-2.5151297E-1,-4.363974E-2,1.356508E-1,-6.978708E-2,-2.891108E-1,-1.574476E-2,4.6937323E-1,-1.5928572E-1,-8.1678305E-4,-3.4940835E-2,2.4782592E-2,-2.1110424E-1,8.5643984E-2,-4.361169E-1,8.834197E-2,4.305257E-3,-5.7580095E-2,2.6545018E-1,-3.7722666E-2,9.061849E-2,-1.18920304E-1,-8.739646E-3,-1.1887053E-1,-5.819365E-2,-1.875136E-1],"categories":[],"categories_nodes":[],"categories_segments":[],"categories_sizes":[],"default_left":[1,1,0,1,0,1,0,0,0,1,0,0,0,0,0,0,0,0,0,0,0,0,0,0,0,0,0,0,0,0,0,0,0,0,0],"id":28,"left_children":[1,3,-1,5,7,9,11,13,-1,15,17,19,-1,21,23,25,27,-1,29,-1,-1,31,-1,33,-1,-1,-1,-1,-1,-1,-1,-1,-1,-1,-1],"loss_changes":[2.0727873E-1,1.846619E-1,0E0,2.9606193E-1,6.830506E-1,4.4358307E-1,5.2691966E-1,1.3959792E-1,0E0,7.5562376E-1,4.7890145E-1,5.8374085E-2,0E0,4.3185306E-1,7.288013E-1,2.2330447E-1,9.721206E-1,0E0,6.718633E-1,0E0,0E0,1.8620822E-1,0E0,1.5291905E-1,0E0,0E0,0E0,0E0,0E0,0E0,0E0,0E0,0E0,0E0,0E0],"parents":[2147483647,0,0,1,1,3,3,4,4,5,5,6,6,7,7,9,9,10,10,11,11,13,13,14,14,15,15,16,16,18,18,21,21,23,23],"right_children":[2,4,-1,6,8,10,12,14,-1,16,18,20,-1,22,24,26,28,-1,30,-1,-1,32,-1,34,-1,-1,-1,-1,-1,-1,-1,-1,-1,-1,-1],"split_conditions":[6.2E1,3.6E1,8.205377E-2,3.1E1,1.13275E2,2.8E1,1.875E1,2.7E1,1.2607457E-1,2.7E1,2.9E1,8.6833E0,1.356508E-1,2.62875E1,5.55E1,3.96E1,1.2525E1,-1.5928572E-1,3E1,-3.4940835E-2,2.4782592E-2,4.5E1,8.5643984E-2,5E1,8.834197E-2,4.305257E-3,-5.7580095E-2,2.6545018E-1,-3.7722666E-2,9.061849E-2,-1.18920304E-1,-8.739646E-3,-1.1887053E-1,-5.819365E-2,-1.875136E-1],"split_indices":[0,0,0,0,2,0,2,2,0,0,0,2,0,2,0,2,2,0,0,0,0,0,0,0,0,0,0,0,0,0,0,0,0,0,0],"split_type":[0,0,0,0,0,0,0,0,0,0,0,0,0,0,0,0,0,0,0,0,0,0,0,0,0,0,0,0,0,0,0,0,0,0,0],"sum_hessian":[7.142163E1,6.977085E1,1.6507753E0,5.6200294E1,1.3570557E1,4.89176E1,7.2826967E0,1.2399524E1,1.171033E0,4.307527E1,5.842327E0,4.3023005E0,2.980396E0,6.4013476E0,5.9981766E0,4.059349E1,2.4817789E0,2.2341323E0,3.6081948E0,2.7774901E0,1.5248103E0,4.869971E0,1.5313768E0,4.9930964E0,1.0050799E0,3.5455692E1,5.137799E0,1.1748017E0,1.3069773E0,2.17745E0,1.4307446E0,3.0395966E0,1.8303742E0,3.0766597E0,1.9164368E0],"tree_param":{"num_deleted":"0","num_feature":"4","num_nodes":"35","size_leaf_vector":"1"}},{"base_weights":[6.670539E-4,1.2416373E-2,-2.0945944E-1,-9.143897E-3,2.6951572E-1,-1.4434768E-1,2.7944086E-2,1.05915945E-2,-1.6254744E-1,1.3885531E-1,1.07572146E-1,-1.214774E-2,1.19635575E-1,-7.34379E-2,1.0000848E-1,1.868588E-2,-1.7495888E-1,-4.180891E-3,9.6365616E-2],"categories":[],"categories_nodes":[],"categories_segments":[],"categories_sizes":[],"default_left":[0,0,0,0,1,0,0,0,0,0,0,0,0,0,0,0,0,0,0],"id":29,"left_children":[1,3,5,7,9,-1,-1,11,-1,-1,13,15,-1,-1,-1,17,-1,-1,-1],"loss_changes":[1.8023129E-1,3.8540015E-1,3.6267146E-1,6.8596494E-1,1.18587464E-1,0E0,0E0,5.6426567E-1,0E0,0E0,4.180888E-1,1.0820991E0,0E0,0E0,0E0,5.8370596E-1,0E0,0E0,0E0],"parents":[2147483647,0,0,1,1,2,2,3,3,4,4,7,7,10,10,11,11,15,15],"right_children":[2,4,6,8,10,-1,-1,12,-1,-1,14,16,-1,-1,-1,18,-1,-1,-1],"split_conditions":[1.356333E2,7.525E1,1.648667E2,6.1175E1,2.8E1,-1.4434768E-1,2.7944086E-2,5.25542E1,-1.6254744E-1,1.3885531E-1,4.7E1,3.70042E1,1.19635575E-1,-7.34379E-2,1.0000848E-1,3E1,-1.7495888E-1,-4.180891E-3,9.6365616E-2],"split_indices":[2,2,2,2,0,0,0,2,0,0,0,2,0,0,0,2,0,0,0],"split_type":[0,0,0,0,0,0,0,0,0,0,0,0,0,0,0,0,0,0,0],"sum_hessian":[7.094889E1,6.808292E1,2.8659775E0,6.3705063E1,4.377852E0,1.1992052E0,1.6667724E0,6.2374256E1,1.3308104E0,1.148556E0,3.2292962E0,5.9837822E1,2.536431E0,1.2282829E0,2.001013E0,5.7690136E1,2.1476862E0,5.2935974E1,4.7541637E0],"tree_param":{"num_deleted":"0","num_feature":"4","num_nodes":"19","size_leaf_vector":"1"}},{"base_weights":[-9.4970205E-4,9.462041E-2,-1.0185419E-2,-1.0248491E-1,1.8241597E-4,-4.1232497E-2,8.9240275E-2,-2.2413123E-2,-1.16357245E-1,3.288481E-1,9.0511E-4,-4.121761E-2,2.4980526E-1,1.2894453E-1,4.5574304E-1,1.1159147E-1,-1.7008096E-1,-7.896471E-2,-3.4631456E-3,1.4226593E-1,-2.2433491E-2,-4.0856007E-2,9.6213646E-2,1.7150551E-1,3.187947E-2,1.3106883E-1,-4.1212826E-3,-1.2451408E-1,-1.3771383E-3],"categories":[0],"categories_nodes":[4],"categories_segments":[0],"categories_sizes":[1],"default_left":[0,0,0,0,1,0,0,0,0,0,0,0,0,0,1,0,0,0,0,0,0,0,0,0,0,0,0,0,0],"id":30,"left_children":[1,-1,3,-1,5,7,9,11,-1,13,15,17,19,21,23,25,27,-1,-1,-1,-1,-1,-1,-1,-1,-1,-1,-1,-1],"loss_changes":[2.1244374E-1,0E0,2.4248594E-1,0E0,2.596823E-1,3.0482164E-1,4.7271442E-1,2.4908067E-1,0E0,9.3863904E-2,3.4698367E-1,2.900509E-1,2.6533046E-1,2.3337004E-1,7.239568E-2,4.595464E-1,2.9024702E-1,0E0,0E0,0E0,0E0,0E0,0E0,0E0,0E0,0E0,0E0,0E0,0E0],"parents":[2147483647,0,0,2,2,4,4,5,5,6,6,7,7,9,9,10,10,11,11,12,12,13,13,14,14,15,15,16,16],"right_children":[2,-1,4,-1,6,8,10,12,-1,14,16,18,20,22,24,26,28,-1,-1,-1,-1,-1,-1,-1,-1,-1,-1,-1,-1],"split_conditions":[2E0,9.462041E-2,3E0,-1.0248491E-1,NaN,1.345E2,3E0,8.65E1,-1.16357245E-1,2.8E1,1.01708E1,1.9E1,3.9E1,2.1075E1,5E1,1.9E1,2.3E1,-7.896471E-2,-3.4631456E-3,1.4226593E-1,-2.2433491E-2,-4.0856007E-2,9.6213646E-2,1.7150551E-1,3.187947E-2,1.3106883E-1,-4.1212826E-3,-1.2451408E-1,-1.3771383E-3],"split_indices":[0,0,0,0,3,2,1,2,0,0,2,0,0,2,0,0,0,0,0,0,0,0,0,0,0,0,0,0,0],"split_type":[0,0,0,0,1,0,0,0,0,0,0,0,0,0,0,0,0,0,0,0,0,0,0,0,0,0,0,0,0],"sum_hessian":[7.061214E1,1.06266E0,6.954948E1,1.1405218E0,6.840896E1,4.706101E1,2.1347946E1,4.564733E1,1.4136782E0,5.016913E0,1.6331032E1,4.3491577E1,2.1557548E0,2.7309196E0,2.2859936E0,1.0124433E1,6.2065997E0,4.199985E0,3.929159E1,1.0019823E0,1.1537724E0,1.2678579E0,1.4630616E0,1.2390912E0,1.0469024E0,2.1243837E0,8.00005E0,1.8944196E0,4.31218E0],"tree_param":{"num_deleted":"0","num_feature":"4","num_nodes":"29","size_leaf_vector":"1"}},{"base_weights":[1.9744958E-3,8.187669E-2,-5.89522E-3,5.63372E-3,-2.2503096E-1,-7.5279586E-3,1.05649106E-1,-1.3555472E-1,4.3027412E-2,-2.4685843E-2,1.8978347E-1,5.1407083E-3,-2.851763E-1,2.6802814E-1,-2.959807E-3,-3.039744E-3,1.0102228E-1,-1.0600066E-1,1.01817595E-2,-1.6529225E-2,1.5728809E-1],"categories":[],"categories_nodes":[],"categories_segments":[],"categories_sizes":[],"default_left":[0,0,0,1,0,0,0,0,0,1,0,1,0,0,0,0,0,0,0,0,0],"id":31,"left_children":[1,-1,3,5,7,9,-1,-1,-1,11,13,15,17,19,-1,-1,-1,-1,-1,-1,-1],"loss_changes":[1.5279135E-1,0E0,1.7781109E-1,3.0988458E-1,3.587379E-1,2.2770603E-1,0E0,0E0,0E0,4.79223E-1,8.6771205E-2,2.8781885E-1,1.4978611E-1,3.522043E-1,0E0,0E0,0E0,0E0,0E0,0E0,0E0],"parents":[2147483647,0,0,2,2,3,3,4,4,5,5,9,9,10,10,11,11,12,12,13,13],"right_children":[2,-1,4,6,8,10,-1,-1,-1,12,14,16,18,20,-1,-1,-1,-1,-1,-1,-1],"split_conditions":[2E0,8.187669E-2,1.5155E2,6.2E1,2.27525E2,7.525E1,1.05649106E-1,-1.3555472E-1,4.3027412E-2,4.5E1,1.06425E2,4.2E1,3.4375E1,4.7E1,-2.959807E-3,-3.039744E-3,1.0102228E-1,-1.0600066E-1,1.01817595E-2,-1.6529225E-2,1.5728809E-1],"split_indices":[0,0,2,0,2,2,0,0,0,0,2,0,2,0,0,0,0,0,0,0,0],"split_type":[0,0,0,0,0,0,0,0,0,0,0,0,0,0,0,0,0,0,0,0,0],"sum_hessian":[6.990169E1,1.0223672E0,6.887932E1,6.636223E1,2.5170891E0,6.487641E1,1.4858183E0,1.4179063E0,1.0991828E0,6.0491093E1,4.3853197E0,5.5155922E1,5.335171E0,2.9045162E0,1.4808033E0,5.365411E1,1.5018132E0,4.3078356E0,1.0273356E0,1.6318777E0,1.2726386E0],"tree_param":{"num_deleted":"0","num_feature":"4","num_nodes":"21","size_leaf_vector":"1"}},{"base_weights":[4.553924E-3,-2.9070364E-2,7.531113E-2,9.612919E-3,-1.5674901E-1,1.3748743E-2,3.1400794E-1,-1.2661622E-2,1.233161E-1,-1.8922508E-1,-1.3370389E-2,1.0309356E-1,-2.537266E-1,1.2201241E-1,2.6019858E-3,2.3211224E-2,-3.7785706E-1,8.6172834E-2,-1.4616509E-1,-5.2613772E-2,2.5819865E-1,1.339285E-2,-1.734669E-1,2.8068468E-1,-2.5562705E-2,-2.0963074E-1,3.819119E-2,-2.0919316E-2,-1.19719654E-1,-1.7095163E-1,1.3109787E-1,1.03415675E-1,1.4455989E-1,7.353901E-2,-7.248577E-2,1.3118903E-1,-2.8263459E-2,8.738758E-3,-7.8377075E-2,-4.2636715E-2,7.5182565E-2,2.7496548E-2,-1.5547794E-1,-5.586206E-2,9.6969575E-2,1.2919365E-1,-5.4335427E-2],"categories":[0],"categories_nodes":[0],"categories_segments":[0],"categories_sizes":[1],"default_left":[1,0,1,0,0,1,0,1,0,0,0,1,0,0,0,0,0,0,0,0,0,0,0,0,1,0,0,0,0,0,0,0,0,0,0,0,0,0,0,0,0,0,0,0,0,0,0],"id":32,"left_children":[1,3,5,7,9,11,13,15,-1,-1,17,19,21,-1,-1,23,25,-1,27,29,31,33,-1,35,37,-1,-1,39,-1,41,43,45,-1,-1,-1,-1,-1,-1,-1,-1,-1,-1,-1,-1,-1,-1,-1],"loss_changes":[1.7086586E-1,2.4243695E-1,3.3537573E-1,3.4839794E-1,7.663666E-1,4.903145E-1,1.2932923E-1,4.9785256E-1,0E0,0E0,4.3218416E-1,3.8238424E-1,4.543357E-1,0E0,0E0,4.458981E-1,6.39658E-1,0E0,2.273886E-1,2.0614107E-1,2.2087306E-1,2.8398815E-1,0E0,3.7277868E-1,3.9804357E-1,0E0,0E0,2.341547E-1,0E0,5.5589855E-1,2.9655024E-1,6.268287E-1,0E0,0E0,0E0,0E0,0E0,0E0,0E0,0E0,0E0,0E0,0E0,0E0,0E0,0E0,0E0],"parents":[2147483647,0,0,1,1,2,2,3,3,4,4,5,5,6,6,7,7,10,10,11,11,12,12,15,15,16,16,18,18,19,19,20,20,21,21,23,23,24,24,27,27,29,29,30,30,31,31],"right_children":[2,4,6,8,10,12,14,16,-1,-1,18,20,22,-1,-1,24,26,-1,28,30,32,34,-1,36,38,-1,-1,40,-1,42,44,46,-1,-1,-1,-1,-1,-1,-1,-1,-1,-1,-1,-1,-1,-1,-1],"split_conditions":[NaN,3.70042E1,3.1E1,3.4375E1,5.25542E1,2.5E1,2.79E1,5.4E1,1.233161E-1,-1.8922508E-1,5.79792E1,1.5E1,1.55E1,1.2201241E-1,2.6019858E-3,2E0,6.2E1,8.6172834E-2,5.1E1,1.55E1,1.45E1,2.8E1,-1.734669E-1,5.3E1,3.25E1,-2.0963074E-1,3.819119E-2,4.7E1,-1.19719654E-1,7.8875E0,5E0,1.9E1,1.4455989E-1,7.353901E-2,-7.248577E-2,1.3118903E-1,-2.8263459E-2,8.738758E-3,-7.8377075E-2,-4.2636715E-2,7.5182565E-2,2.7496548E-2,-1.5547794E-1,-5.586206E-2,9.6969575E-2,1.2919365E-1,-5.4335427E-2],"split_indices":[3,2,0,2,2,0,2,0,0,0,2,0,2,0,0,1,0,0,0,2,2,0,0,0,0,0,0,0,0,2,0,0,0,0,0,0,0,0,0,0,0,0,0,0,0,0,0],"split_type":[1,0,0,0,0,0,0,0,0,0,0,0,0,0,0,0,0,0,0,0,0,0,0,0,0,0,0,0,0,0,0,0,0,0,0,0,0,0,0,0,0,0,0,0,0,0,0],"sum_hessian":[6.989749E1,4.7780865E1,2.2116627E1,3.7380318E1,1.0400547E1,1.8422794E1,3.6938317E0,3.6332798E1,1.0475203E0,1.6259755E0,8.774572E0,1.4270565E1,4.1522303E0,2.5788739E0,1.1149577E0,3.393576E1,2.39704E0,2.3321419E0,6.44243E0,7.4512105E0,6.8193545E0,2.8033178E0,1.3489121E0,4.6474504E0,2.928831E1,1.2314686E0,1.1655712E0,5.032744E0,1.4096861E0,4.574198E0,2.877013E0,4.8945675E0,1.9247868E0,1.4889841E0,1.3143338E0,3.1606488E0,1.4868016E0,2.4483437E1,4.8048725E0,3.80906E0,1.2236838E0,3.023879E0,1.5503185E0,1.0966955E0,1.7803173E0,2.0376468E0,2.856921E0],"tree_param":{"num_deleted":"0","num_feature":"4","num_nodes":"47","size_leaf_vector":"1"}},{"base_weights":[9.804578E-4,2.032284E-1,-1.3128124E-2,1.9997075E-2,1.11746885E-1,-1.647476E-1,7.7213557E-3,1.07665494E-1,-9.2225075E-2,-1.784604E-1,4.098281E-2,1.437797E-1,-3.558916E-2,1.937604E-1,-3.3508554E-1,-2.778298E-2,5.059263E-1,-4.8168716E-1,-2.1818588E-3,-5.3321624E-1,5.3755473E-2,8.375356E-2,-1.6729186E-1,1.4679655E-1,2.6108184E-1,-4.6651207E-2,-1.7198984E-1,2.433266E-1,-2.7767006E-2,-2.4112685E-2,-2.1424034E-1,-1.3288339E-2,1.1853898E-1,7.07162E-2,-1.21252155E-2,8.19926E-3,9.566822E-2,-9.078039E-2,1.2765319E-2],"categories":[],"categories_nodes":[],"categories_segments":[],"categories_sizes":[],"default_left":[0,0,0,0,0,0,0,0,0,0,0,0,0,0,0,1,0,0,0,0,0,1,0,0,0,0,0,0,0,0,0,0,0,0,0,0,0,0,0],"id":33,"left_children":[1,3,5,7,-1,9,11,-1,-1,-1,13,15,17,-1,19,21,23,25,27,29,-1,31,-1,33,-1,-1,-1,35,37,-1,-1,-1,-1,-1,-1,-1,-1,-1,-1],"loss_changes":[2.0248437E-1,1.3605623E-1,2.1117356E-1,4.74109E-1,0E0,7.38635E-1,3.5472172E-1,0E0,0E0,0E0,1.6712888E0,9.164295E-1,6.8156457E-1,0E0,5.6447E-1,6.851434E-1,4.899484E-1,6.0739517E-3,2.8073397E-1,2.3538697E-1,0E0,4.0799186E-1,0E0,6.9131605E-2,0E0,0E0,0E0,6.014687E-2,7.9361093E-1,0E0,0E0,0E0,0E0,0E0,0E0,0E0,0E0,0E0,0E0],"parents":[2147483647,0,0,1,1,2,2,3,3,5,5,6,6,10,10,11,11,12,12,14,14,15,15,16,16,17,17,18,18,19,19,21,21,23,23,27,27,28,28],"right_children":[2,4,6,8,-1,10,12,-1,-1,-1,14,16,18,-1,20,22,24,26,28,30,-1,32,-1,34,-1,-1,-1,36,38,-1,-1,-1,-1,-1,-1,-1,-1,-1,-1],"split_conditions":[6E0,3.13875E1,1.9E1,2.1E1,1.11746885E-1,7.8792E0,7.8875E0,1.07665494E-1,-9.2225075E-2,-1.784604E-1,1.01708E1,7.775E0,7.925E0,1.937604E-1,3.5E1,3E1,3.2E1,3E1,8.0292E0,1.45E1,5.3755473E-2,2.3E1,-1.6729186E-1,2.6E1,2.6108184E-1,-4.6651207E-2,-1.7198984E-1,2.7E1,1.05E1,-2.4112685E-2,-2.1424034E-1,-1.3288339E-2,1.1853898E-1,7.07162E-2,-1.21252155E-2,8.19926E-3,9.566822E-2,-9.078039E-2,1.2765319E-2],"split_indices":[0,2,0,2,0,2,2,0,0,0,2,2,2,0,2,0,0,0,2,0,0,0,0,0,0,0,0,0,2,0,0,0,0,0,0,0,0,0,0],"split_type":[0,0,0,0,0,0,0,0,0,0,0,0,0,0,0,0,0,0,0,0,0,0,0,0,0,0,0,0,0,0,0,0,0,0,0,0,0,0,0],"sum_hessian":[6.902669E1,3.6271098E0,6.5399574E1,2.2785935E0,1.3485161E0,7.071702E0,5.8327873E1,1.0724455E0,1.206148E0,1.6760638E0,5.395638E0,1.3523759E1,4.4804115E1,1.7934889E0,3.6021492E0,9.802991E0,3.7207685E0,2.1866384E0,4.2617477E1,2.5737367E0,1.0284125E0,8.793798E0,1.0091919E0,2.5803087E0,1.1404598E0,1.070953E0,1.1156855E0,3.218936E0,3.939854E1,1.147013E0,1.4267238E0,6.83909E0,1.9547087E0,1.5737165E0,1.0065922E0,1.1872042E0,2.0317316E0,7.3536973E0,3.204484E1],"tree_param":{"num_deleted":"0","num_feature":"4","num_nodes":"39","size_leaf_vector":"1"}},{"base_weights":[-2.4950295E-4,4.90225E-2,-5.3907912E-2,-2.4989512E-2,3.5788205E-1,-1.4104654E-1,-2.217291E-2,2.435937E-2,-2.136443E-1,2.9767165E-1,8.3343856E-2,2.0641508E-3,-1.069902E-1,-4.9969334E-2,1.9234261E-1,-1.523788E-1,3.5931163E-2,-2.7864578E-1,3.347065E-1,-3.1069364E-2,2.5234523E-1,-1.6652921E-1,4.6340358E-2,2.6819137E-1,-1.03309885E-1,8.997454E-2,-1.0815388E-1,-5.2821427E-4,-1.254213E-1,2.7915921E-2,1.1758179E-1,9.3585655E-2,-1.1755651E-1,9.334816E-2,2.1013675E-2,4.0570125E-2,-1.2323817E-1,-1.5762098E-1,6.548935E-2,-3.9443556E-2,1.06898315E-1,-2.2179614E-1,-5.476181E-3],"categories":[],"categories_nodes":[],"categories_segments":[],"categories_sizes":[],"default_left":[0,0,0,0,1,0,1,0,0,0,0,1,0,0,0,0,0,0,0,0,0,0,0,0,1,0,0,0,0,0,0,0,0,0,0,0,0,0,0,0,0,0,0],"id":34,"left_children":[1,3,5,7,9,-1,11,13,15,-1,17,19,-1,21,23,-1,25,27,29,31,33,-1,35,-1,37,-1,-1,-1,-1,-1,-1,39,41,-1,-1,-1,-1,-1,-1,-1,-1,-1,-1],"loss_changes":[1.8620044E-1,8.4827065E-1,4.3488336E-1,2.896601E-1,1.1647696E0,0E0,2.6315784E-1,3.232156E-1,4.9106804E-1,0E0,6.47492E-1,2.6639974E-1,0E0,9.1141534E-1,1.7333299E0,0E0,5.7041943E-1,1.1669622E-1,1.9530237E-2,3.1744748E-1,1.8462852E-2,0E0,7.144069E-1,0E0,9.918857E-1,0E0,0E0,0E0,0E0,0E0,0E0,7.6827466E-1,1.0499989E0,0E0,0E0,0E0,0E0,0E0,0E0,0E0,0E0,0E0,0E0],"parents":[2147483647,0,0,1,1,2,2,3,3,4,4,6,6,7,7,8,8,10,10,11,11,13,13,14,14,16,16,17,17,18,18,19,19,20,20,22,22,24,24,31,31,32,32],"right_children":[2,4,6,8,10,-1,12,14,16,-1,18,20,-1,22,24,-1,26,28,30,32,34,-1,36,-1,38,-1,-1,-1,-1,-1,-1,40,42,-1,-1,-1,-1,-1,-1,-1,-1,-1,-1],"split_conditions":[1.4E1,1.05E1,1.52458E1,8.1375E0,1.6E1,-1.4104654E-1,6.1E1,7.925E0,8.6833E0,2.9767165E-1,2.7E1,5.1E1,-1.069902E-1,2E1,2.1E1,-1.523788E-1,9.825E0,1.2275E1,3.4E1,2.7E1,3.675E1,-1.6652921E-1,7.8875E0,2.6819137E-1,2.6E1,8.997454E-2,-1.0815388E-1,-5.2821427E-4,-1.254213E-1,2.7915921E-2,1.1758179E-1,2.2025E1,2.97E1,9.334816E-2,2.1013675E-2,4.0570125E-2,-1.2323817E-1,-1.5762098E-1,6.548935E-2,-3.9443556E-2,1.06898315E-1,-2.2179614E-1,-5.476181E-3],"split_indices":[2,2,2,2,0,0,0,2,2,0,0,0,0,0,0,0,2,2,0,2,2,0,2,0,0,0,0,0,0,0,0,2,2,0,0,0,0,0,0,0,0,0,0],"split_type":[0,0,0,0,0,0,0,0,0,0,0,0,0,0,0,0,0,0,0,0,0,0,0,0,0,0,0,0,0,0,0,0,0,0,0,0,0,0,0,0,0,0,0],"sum_hessian":[6.842801E1,3.5717083E1,3.2710926E1,2.955412E1,6.1629624E0,1.3385828E0,3.1372343E1,2.4116526E1,5.437594E0,1.0719258E0,5.091037E0,3.0179205E1,1.1931381E0,1.7205862E1,6.9106627E0,2.0202537E0,3.4173403E0,2.041915E0,3.0491219E0,2.7424473E1,2.7547326E0,1.9923985E0,1.5213464E1,1.448775E0,5.461888E0,2.1975346E0,1.2198058E0,1.0229876E0,1.0189272E0,1.0866868E0,1.962435E0,1.1199875E1,1.6224598E1,1.5483316E0,1.2064011E0,1.3326241E1,1.887223E0,2.0879219E0,3.373966E0,6.3015633E0,4.898312E0,1.3467919E0,1.4877806E1],"tree_param":{"num_deleted":"0","num_feature":"4","num_nodes":"43","size_leaf_vector":"1"}},{"base_weights":[-4.7603613E-3,-4.1105468E-2,7.3500015E-2,8.469548E-2,-5.6294207E-2,2.6731414E-1,2.372331E-3,-2.9877687E-1,-2.6581025E-2,7.896141E-2,4.214019E-1,1.0173908E-1,-4.1523963E-2,3.23862E-3,-1.2391045E-1,2.5600813E-2,-1.7119645E-1,9.435799E-2,-3.7126947E-2,1.569725E-1,3.3214845E-2,1.25486385E-2,-1.9692308E-1,1.0945403E-1,-1.839204E-2,-1.2505507E-1,-5.7326853E-2,-1.1097377E-1,1.6295467E-1,2.5779894E-2,-1.2296258E-1,-1.849678E-2,1.2491264E-1,6.7187004E-2,-5.6676563E-2,4.25223E-3,-9.698449E-2,-4.9310536E-3,1.3971707E-1],"categories":[0],"categories_nodes":[0],"categories_segments":[0],"categories_sizes":[1],"default_left":[1,0,0,0,0,0,0,0,0,0,0,0,0,0,0,0,0,0,0,0,0,0,1,0,0,0,0,1,1,0,0,0,0,0,0,0,0,0,0],"id":35,"left_children":[1,3,5,-1,7,9,11,13,15,17,19,-1,21,-1,-1,23,25,-1,-1,-1,-1,27,29,-1,31,-1,33,35,37,-1,-1,-1,-1,-1,-1,-1,-1,-1,-1],"loss_changes":[1.9907281E-1,2.5025648E-1,3.0564356E-1,0E0,3.2638383E-1,1.3957456E-1,2.6925156E-1,1.8017095E-1,3.246074E-1,2.2566065E-1,3.841901E-2,0E0,1.3827783E-1,0E0,0E0,4.8507896E-1,2.9448244E-1,0E0,0E0,0E0,0E0,2.5830534E-1,2.9013157E-1,0E0,5.7727486E-1,0E0,3.7309605E-1,2.090216E-1,3.4634048E-1,0E0,0E0,0E0,0E0,0E0,0E0,0E0,0E0,0E0,0E0],"parents":[2147483647,0,0,1,1,2,2,4,4,5,5,6,6,7,7,8,8,9,9,10,10,12,12,15,15,16,16,21,21,22,22,24,24,26,26,27,27,28,28],"right_children":[2,4,6,-1,8,10,12,14,16,18,20,-1,22,-1,-1,24,26,-1,-1,-1,-1,28,30,-1,32,-1,34,36,38,-1,-1,-1,-1,-1,-1,-1,-1,-1,-1],"split_conditions":[NaN,4E0,3E0,8.469548E-2,1.9E1,2.8E1,7.6292E0,1.3E1,3.1E1,2.4E1,5E1,1.0173908E-1,1.78E1,3.23862E-3,-1.2391045E-1,2.1E1,5.25542E1,9.435799E-2,-3.7126947E-2,1.569725E-1,3.3214845E-2,8.6833E0,6E0,1.0945403E-1,3E1,-1.2505507E-1,5.79792E1,2.3E1,3E1,2.5779894E-2,-1.2296258E-1,-1.849678E-2,1.2491264E-1,6.7187004E-2,-5.6676563E-2,4.25223E-3,-9.698449E-2,-4.9310536E-3,1.3971707E-1],"split_indices":[3,0,1,0,0,0,2,0,2,0,0,0,2,0,0,0,2,0,0,0,0,2,0,0,2,0,2,0,0,0,0,0,0,0,0,0,0,0,0],"split_type":[1,0,0,0,0,0,0,0,0,0,0,0,0,0,0,0,0,0,0,0,0,0,0,0,0,0,0,0,0,0,0,0,0,0,0,0,0,0,0],"sum_hessian":[6.7925896E1,4.6708595E1,2.1217302E1,1.3062572E0,4.5402336E1,4.955621E0,1.6261683E1,3.9676735E0,4.1434666E1,2.9104316E0,2.0451891E0,1.0996687E0,1.5162013E1,1.3137357E0,2.6539376E0,3.10528E1,1.0381865E1,1.0910479E0,1.8193837E0,1.0250403E0,1.0201489E0,1.1930078E1,3.2319353E0,2.7274048E0,2.8325396E1,2.4454546E0,7.9364095E0,6.694405E0,5.235673E0,1.6443188E0,1.5876164E0,2.6542343E1,1.7830529E0,2.3058362E0,5.6305733E0,4.798877E0,1.8955282E0,3.8815522E0,1.3541205E0],"tree_param":{"num_deleted":"0","num_feature":"4","num_nodes":"39","size_leaf_vector":"1"}},{"base_weights":[1.6357998E-3,-6.9576405E-2,1.16294E-2,6.146291E-2,-4.072152E-2,-6.5772963E-4,3.0002436E-1,-1.23836726E-1,-1.3128811E-2,5.1108144E-2,-1.8970744E-1,4.345262E-2,2.0093547E-1,7.642715E-2,-3.9997257E-2,2.415623E-1,3.5742032E-3,-3.77105E-1,5.6082983E-2,-1.278307E-1,7.976719E-2,-1.2885238E-1,-2.839273E-3,-6.382441E-2,2.0520565E-1,3.396857E-2,-5.0283544E-2,2.8547125E-2,-2.0150492E-1,1.1912682E-1,-9.88734E-2,3.608864E-2,-8.4345855E-2,1.5009467E-1,-1.4298656E-2],"categories":[0],"categories_nodes":[11],"categories_segments":[0],"categories_sizes":[1],"default_left":[0,0,0,0,0,0,0,0,0,0,1,1,0,0,0,0,0,0,0,0,0,0,0,0,0,0,0,0,0,0,0,0,0,0,0],"id":36,"left_children":[1,-1,3,5,7,9,11,-1,13,15,17,19,-1,-1,21,23,25,27,29,31,-1,-1,33,-1,-1,-1,-1,-1,-1,-1,-1,-1,-1,-1,-1],"loss_changes":[1.6147429E-1,0E0,1.751726E-1,5.0861484E-1,3.3213344E-1,2.858374E-1,6.435258E-1,0E0,2.3794118E-1,2.068071E-1,3.1030792E-1,2.3420489E-1,0E0,0E0,4.2751673E-1,1.0634891E0,3.826274E-1,5.7746714E-1,6.0251874E-1,1.7245932E-1,0E0,0E0,6.5643555E-1,0E0,0E0,0E0,0E0,0E0,0E0,0E0,0E0,0E0,0E0,0E0,0E0],"parents":[2147483647,0,0,2,2,3,3,4,4,5,5,6,6,8,8,9,9,10,10,11,11,14,14,15,15,16,16,17,17,18,18,19,19,22,22],"right_children":[2,-1,4,6,8,10,12,-1,14,16,18,20,-1,-1,22,24,26,28,30,32,-1,-1,34,-1,-1,-1,-1,-1,-1,-1,-1,-1,-1,-1,-1],"split_conditions":[7.1417E0,-6.9576405E-2,1.4E1,1.05E1,1.52458E1,8.1375E0,4E1,-1.23836726E-1,1.61E1,2.1E1,2.7E1,NaN,2.0093547E-1,7.642715E-2,1.875E1,7.925E0,7.8875E0,1.9E1,3.2E1,2E1,7.976719E-2,-1.2885238E-1,2.0575E1,-6.382441E-2,2.0520565E-1,3.396857E-2,-5.0283544E-2,2.8547125E-2,-2.0150492E-1,1.1912682E-1,-9.88734E-2,3.608864E-2,-8.4345855E-2,1.5009467E-1,-1.4298656E-2],"split_indices":[2,0,2,2,2,2,0,0,2,0,0,3,0,0,2,2,2,0,0,0,0,0,2,0,0,0,0,0,0,0,0,0,0,0,0],"split_type":[0,0,0,0,0,0,0,0,0,0,0,1,0,0,0,0,0,0,0,0,0,0,0,0,0,0,0,0,0,0,0,0,0,0,0],"sum_hessian":[6.7025696E1,1.8390429E0,6.518665E1,3.3307125E1,3.1879532E1,2.7217117E1,6.090007E0,1.2371666E0,3.0642365E1,2.1939318E1,5.277799E0,4.255021E0,1.8349855E0,2.0200684E0,2.8622297E1,3.5667071E0,1.837261E1,2.6914825E0,2.5863168E0,2.6442196E0,1.6108016E0,1.5731106E0,2.7049187E1,2.0159323E0,1.5507749E0,1.1405381E1,6.96723E0,1.2939758E0,1.3975067E0,1.3568972E0,1.2294195E0,1.0921558E0,1.5520638E0,1.3813163E0,2.566787E1],"tree_param":{"num_deleted":"0","num_feature":"4","num_nodes":"35","size_leaf_vector":"1"}},{"base_weights":[1.6187582E-3,-2.8847415E-2,6.817618E-2,-2.0512423E-1,-2.4686719E-3,-1.2654825E-1,1.4584798E-1,2.9278532E-2,-1.847367E-1,1.0582327E-1,-4.609379E-2,3.5746135E-2,-3.061652E-1,7.343382E-2,1.2587774E-1,1.7621575E-1,-5.9355192E-2,-4.4456255E-3,2.4743506E-1,-1.17648244E-1,-1.2195194E-2,-1.4708506E-1,-2.2811767E-2,1.08801894E-1,1.8204551E-2,8.190458E-2,-3.7836276E-3,1.369517E-1,-1.3232525E-1,1.4333983E-1,5.645193E-2,1.8092048E-1,-6.1621014E-2,-9.310866E-2,1.11320235E-1,1.1532553E-1,-2.2066958E-2,-3.6778558E-2,8.502538E-2,-8.501625E-2,1.4849633E-1,4.2544343E-2,-4.194271E-2,7.1640454E-2,-3.4396783E-2],"categories":[0],"categories_nodes":[0],"categories_segments":[0],"categories_sizes":[1],"default_left":[1,0,1,0,0,0,0,0,0,1,0,0,0,0,0,0,0,1,0,0,0,0,0,0,0,0,0,0,0,0,0,0,0,0,0,0,0,0,0,0,0,0,0,0,0],"id":37,"left_children":[1,3,5,7,9,11,13,15,-1,17,19,-1,21,23,-1,25,-1,27,29,-1,31,-1,-1,-1,33,-1,-1,35,-1,-1,37,39,41,-1,43,-1,-1,-1,-1,-1,-1,-1,-1,-1,-1],"loss_changes":[1.3888587E-1,2.1814741E-1,3.4363538E-1,6.0604423E-1,2.0289077E-1,3.3066586E-1,2.8306457E-1,1.9650853E-1,0E0,1.937884E-1,3.5389286E-1,0E0,1.377522E-1,2.1278724E-1,0E0,6.686606E-2,0E0,5.493796E-1,2.114723E-1,0E0,2.8679478E-1,0E0,0E0,0E0,4.1957346E-1,0E0,0E0,3.7968308E-1,0E0,0E0,2.0124292E-1,1.0355E0,3.974376E-1,0E0,3.3106315E-1,0E0,0E0,0E0,0E0,0E0,0E0,0E0,0E0,0E0,0E0],